{"learner":{"attributes":{"scikit_learn":"{\"_estimator_type\": \"regressor\"}"},"feature_names":["live_OilTemperature_C","live_WindingTemperature_C","live_LoadingPercent","live_Hydrogen_ppm","live_Acetylene_ppm","live_Moisture_ppm","live_OilLevelPercent","live_TapPosition","AssetAging","RealTimeDrift","EnvironmentalStress"],"feature_types":["float","float","float","float","float","float","float","float","float","float","float"],"gradient_booster":{"model":{"cats":{"enc":[],"feature_segments":[],"sorted_idx":[]},"gbtree_model_param":{"num_parallel_tree":"1","num_trees":"300"},"iteration_indptr":[0,1,2,3,4,5,6,7,8,9,10,11,12,13,14,15,16,17,18,19,20,21,22,23,24,25,26,27,28,29,30,31,32,33,34,35,36,37,38,39,40,41,42,43,44,45,46,47,48,49,50,51,52,53,54,55,56,57,58,59,60,61,62,63,64,65,66,67,68,69,70,71,72,73,74,75,76,77,78,79,80,81,82,83,84,85,86,87,88,89,90,91,92,93,94,95,96,97,98,99,100,101,102,103,104,105,106,107,108,109,110,111,112,113,114,115,116,117,118,119,120,121,122,123,124,125,126,127,128,129,130,131,132,133,134,135,136,137,138,139,140,141,142,143,144,145,146,147,148,149,150,151,152,153,154,155,156,157,158,159,160,161,162,163,164,165,166,167,168,169,170,171,172,173,174,175,176,177,178,179,180,181,182,183,184,185,186,187,188,189,190,191,192,193,194,195,196,197,198,199,200,201,202,203,204,205,206,207,208,209,210,211,212,213,214,215,216,217,218,219,220,221,222,223,224,225,226,227,228,229,230,231,232,233,234,235,236,237,238,239,240,241,242,243,244,245,246,247,248,249,250,251,252,253,254,255,256,257,258,259,260,261,262,263,264,265,266,267,268,269,270,271,272,273,274,275,276,277,278,279,280,281,282,283,284,285,286,287,288,289,290,291,292,293,294,295,296,297,298,299,300],"tree_info":[0,0,0,0,0,0,0,0,0,0,0,0,0,0,0,0,0,0,0,0,0,0,0,0,0,0,0,0,0,0,0,0,0,0,0,0,0,0,0,0,0,0,0,0,0,0,0,0,0,0,0,0,0,0,0,0,0,0,0,0,0,0,0,0,0,0,0,0,0,0,0,0,0,0,0,0,0,0,0,0,0,0,0,0,0,0,0,0,0,0,0,0,0,0,0,0,0,0,0,0,0,0,0,0,0,0,0,0,0,0,0,0,0,0,0,0,0,0,0,0,0,0,0,0,0,0,0,0,0,0,0,0,0,0,0,0,0,0,0,0,0,0,0,0,0,0,0,0,0,0,0,0,0,0,0,0,0,0,0,0,0,0,0,0,0,0,0,0,0,0,0,0,0,0,0,0,0,0,0,0,0,0,0,0,0,0,0,0,0,0,0,0,0,0,0,0,0,0,0,0,0,0,0,0,0,0,0,0,0,0,0,0,0,0,0,0,0,0,0,0,0,0,0,0,0,0,0,0,0,0,0,0,0,0,0,0,0,0,0,0,0,0,0,0,0,0,0,0,0,0,0,0,0,0,0,0,0,0,0,0,0,0,0,0,0,0,0,0,0,0,0,0,0,0,0,0,0,0,0,0,0,0,0,0,0,0,0,0,0,0,0,0,0,0,0,0,0,0,0,0],"trees":[{"base_weights":[5.2676833E-4,-8.345587E-2,7.7446334E-2,-1.5213092E-1,-5.175238E-2,3.7341036E-2,1.383648E-1,-1.9673094E-1,-1.2922454E-1,-7.212907E-2,-2.485443E-2,1.3238353E-2,5.678541E-2,1.18552096E-1,1.977074E-1,-1.1095563E-2,-8.694129E-3,-1.4250752E-1,-1.1316084E-1,-9.117416E-2,-6.075169E-2,-1.089343E-2,-3.5961468E-2,2.0202324E-3,2.6318328E-2,5.0897997E-2,7.979945E-2,1.0028228E-1,1.3796061E-1,8.603111E-3,1.1059205E-2,-6.370287E-3,-7.4711293E-3,-1.03707545E-1,-6.6809705E-3,-1.0269591E-1,-7.890281E-2,-4.9211193E-2,-7.527551E-2,-2.0013707E-2,-1.1605687E-3,-4.4065576E-2,-2.3319231E-2,1.3026744E-2,-1.04732085E-2,1.5074766E-2,3.5986103E-2,6.849367E-2,4.405751E-2,8.539094E-2,2.610685E-3,1.119726E-1,8.6130895E-2,1.4650469E-1,1.1732972E-1,-5.8932025E-3,-4.7596586E-3,-4.641348E-3,-5.6027784E-3,-3.1456903E-3,-4.5640767E-3,-2.9457624E-3,-1.7947106E-3,-4.239419E-3,-3.0044105E-3,-1.8099751E-3,-7.78826E-4,-4.9514696E-4,7.565649E-4,-2.6939418E-3,-1.818444E-3,-1.4995973E-3,-8.871627E-4,3.8703927E-4,1.6647645E-3,-1.4866738E-3,-2.4131728E-4,1.3966762E-3,1.3965774E-4,2.2003395E-3,1.190812E-3,2.2857075E-3,3.6188674E-3,1.8539996E-3,2.8841884E-3,3.8503378E-3,4.9220338E-3,4.59909E-3,5.9349737E-3,3.8742234E-3,4.8904573E-3,6.315426E-3,7.6167495E-3,5.9010484E-3,1.3606489E-3],"categories":[],"categories_nodes":[],"categories_segments":[],"categories_sizes":[],"default_left":[0,0,0,0,0,0,0,0,0,0,0,0,0,0,0,0,0,0,0,0,0,0,0,0,0,0,0,0,0,0,0,0,0,0,0,0,0,0,0,0,0,0,0,0,0,0,0,0,0,0,0,0,0,0,0,0,0,0,0,0,0,0,0,0,0,0,0,0,0,0,0,0,0,0,0,0,0,0,0,0,0,0,0,0,0,0,0,0,0,0,0,0,0,0,0],"id":0,"left_children":[1,3,5,7,9,11,13,15,17,19,21,23,25,27,29,-1,-1,31,33,35,37,39,41,43,45,47,49,51,53,-1,-1,-1,-1,55,-1,57,59,61,63,65,67,69,71,73,75,77,79,81,83,85,-1,87,89,91,93,-1,-1,-1,-1,-1,-1,-1,-1,-1,-1,-1,-1,-1,-1,-1,-1,-1,-1,-1,-1,-1,-1,-1,-1,-1,-1,-1,-1,-1,-1,-1,-1,-1,-1,-1,-1,-1,-1,-1,-1],"loss_changes":[2.5607077E1,4.1179924E0,5.049716E0,5.855093E-1,7.0962954E-1,5.846065E-1,9.418411E-1,7.705498E-2,6.8796635E-2,1.543734E-1,8.6599916E-2,8.197043E-2,8.9564085E-2,2.0530224E-1,8.476448E-2,0E0,0E0,3.3106804E-3,2.1921635E-2,3.0637026E-2,7.42352E-2,2.216837E-2,3.093806E-2,4.1664213E-2,2.750218E-2,6.354308E-2,1.6981542E-2,4.3625116E-2,3.5163403E-2,0E0,0E0,0E0,0E0,4.5701265E-3,0E0,2.3453236E-3,2.1372616E-2,3.174317E-2,2.4378061E-2,8.700833E-3,1.7526247E-2,1.2315631E-2,4.0815026E-3,1.6991593E-2,1.5300429E-2,1.9031053E-2,1.2422204E-2,1.0226965E-2,3.598714E-2,4.8922896E-3,0E0,1.2346029E-2,7.567525E-3,5.0148964E-3,2.51925E-3,0E0,0E0,0E0,0E0,0E0,0E0,0E0,0E0,0E0,0E0,0E0,0E0,0E0,0E0,0E0,0E0,0E0,0E0,0E0,0E0,0E0,0E0,0E0,0E0,0E0,0E0,0E0,0E0,0E0,0E0,0E0,0E0,0E0,0E0,0E0,0E0,0E0,0E0,0E0,0E0],"parents":[2147483647,0,0,1,1,2,2,3,3,4,4,5,5,6,6,7,7,8,8,9,9,10,10,11,11,12,12,13,13,14,14,17,17,18,18,19,19,20,20,21,21,22,22,23,23,24,24,25,25,26,26,27,27,28,28,33,33,35,35,36,36,37,37,38,38,39,39,40,40,41,41,42,42,43,43,44,44,45,45,46,46,47,47,48,48,49,49,51,51,52,52,53,53,54,54],"right_children":[2,4,6,8,10,12,14,16,18,20,22,24,26,28,30,-1,-1,32,34,36,38,40,42,44,46,48,50,52,54,-1,-1,-1,-1,56,-1,58,60,62,64,66,68,70,72,74,76,78,80,82,84,86,-1,88,90,92,94,-1,-1,-1,-1,-1,-1,-1,-1,-1,-1,-1,-1,-1,-1,-1,-1,-1,-1,-1,-1,-1,-1,-1,-1,-1,-1,-1,-1,-1,-1,-1,-1,-1,-1,-1,-1,-1,-1,-1,-1],"split_conditions":[4.7403467E-1,3.4936118E-1,5.91187E-1,2.7451333E-1,4.2585734E-1,5.235275E-1,6.887655E-1,2.3833017E-1,3.1910115E-1,3.8154733E-1,5.587E1,9.1597E1,5.7616633E-1,6.303047E-1,7.262508E-1,-1.1095563E-2,-8.694129E-3,4.4393E1,6.9602E1,6.5918E1,6.3361E1,4.4887882E-1,8.3237E1,6.6719E1,4.9580234E-1,5.2135E1,8.0795E1,6.802E1,8.0384E1,8.603111E-3,1.1059205E-2,-6.370287E-3,-7.4711293E-3,6.2481E1,-6.6809705E-3,5.9031E1,5.3896E1,9.1597E1,8.2636E1,4.076E1,1.01438E2,4.4507083E-1,4.4769683E-1,5.1240784E-1,2.326E1,5.8759E1,7.0331E1,3.628E1,1.03402E2,1.03959E2,2.610685E-3,5.4233E1,9.2658E1,5.4844E1,9.4711E1,-5.8932025E-3,-4.7596586E-3,-4.641348E-3,-5.6027784E-3,-3.1456903E-3,-4.5640767E-3,-2.9457624E-3,-1.7947106E-3,-4.239419E-3,-3.0044105E-3,-1.8099751E-3,-7.78826E-4,-4.9514696E-4,7.565649E-4,-2.6939418E-3,-1.818444E-3,-1.4995973E-3,-8.871627E-4,3.8703927E-4,1.6647645E-3,-1.4866738E-3,-2.4131728E-4,1.3966762E-3,1.3965774E-4,2.2003395E-3,1.190812E-3,2.2857075E-3,3.6188674E-3,1.8539996E-3,2.8841884E-3,3.8503378E-3,4.9220338E-3,4.59909E-3,5.9349737E-3,3.8742234E-3,4.8904573E-3,6.315426E-3,7.6167495E-3,5.9010484E-3,1.3606489E-3],"split_indices":[10,10,10,10,10,10,10,10,10,10,2,3,10,10,10,0,0,2,2,3,2,10,3,2,10,2,2,2,2,0,0,0,0,3,0,2,2,3,3,3,3,10,10,10,3,2,2,3,3,3,0,3,3,3,2,0,0,0,0,0,0,0,0,0,0,0,0,0,0,0,0,0,0,0,0,0,0,0,0,0,0,0,0,0,0,0,0,0,0,0,0,0,0,0,0],"split_type":[0,0,0,0,0,0,0,0,0,0,0,0,0,0,0,0,0,0,0,0,0,0,0,0,0,0,0,0,0,0,0,0,0,0,0,0,0,0,0,0,0,0,0,0,0,0,0,0,0,0,0,0,0,0,0,0,0,0,0,0,0,0,0,0,0,0,0,0,0,0,0,0,0,0,0,0,0,0,0,0,0,0,0,0,0,0,0,0,0,0,0,0,0,0,0],"sum_hessian":[3.962E3,1.894E3,2.068E3,5.97E2,1.297E3,1.248E3,8.2E2,2E2,3.97E2,7.37E2,5.6E2,5.58E2,6.9E2,6.17E2,2.03E2,9.1E1,1.09E2,2.13E2,1.84E2,2.73E2,4.64E2,2.49E2,3.11E2,3.01E2,2.57E2,5.52E2,1.38E2,3.21E2,2.96E2,1.01E2,1.02E2,7.3E1,1.4E2,1.3E2,5.4E1,1.37E2,1.36E2,2.61E2,2.03E2,1.28E2,1.21E2,1.88E2,1.23E2,1.6E2,1.41E2,1.2E2,1.37E2,1.52E2,4E2,1.13E2,2.5E1,1.72E2,1.49E2,2.05E2,9.1E1,4.4E1,8.6E1,7.2E1,6.5E1,6.2E1,7.4E1,1.49E2,1.12E2,1.22E2,8.1E1,2.6E1,1.02E2,7.9E1,4.2E1,8E1,1.08E2,5.4E1,6.9E1,1.28E2,3.2E1,3.1E1,1.1E2,5.8E1,6.2E1,8.1E1,5.6E1,2.4E1,1.28E2,2.67E2,1.33E2,7.3E1,4E1,4.7E1,1.25E2,9E1,5.9E1,5.1E1,1.54E2,9E1,1E0],"tree_param":{"num_deleted":"0","num_feature":"11","num_nodes":"95","size_leaf_vector":"1"}},{"base_weights":[-3.1631536E-4,-7.795941E-2,7.417719E-2,-1.3548777E-1,-4.334135E-2,4.218854E-2,1.401026E-1,-1.842375E-1,-1.1698835E-1,-6.741638E-2,-2.5059473E-2,1.8039681E-2,6.295633E-2,1.201143E-1,1.8403731E-1,-1.0400641E-2,-1.6426851E-1,-1.3532588E-1,-1.007841E-1,-7.895576E-2,-4.5532573E-2,-3.7459996E-2,-7.646894E-3,1.9511046E-3,3.5651594E-2,5.1507525E-2,8.130278E-2,1.0467702E-1,1.370611E-1,1.6259632E-1,1.05051985E-2,-8.70555E-3,-6.905336E-3,-1.4759777E-1,-5.923843E-3,-1.15649074E-1,-8.344741E-2,-9.48306E-2,-6.867261E-2,-6.4981975E-2,-3.5909582E-2,-5.19685E-2,-2.5070129E-2,-1.9436054E-2,4.114087E-3,-9.168308E-3,1.640821E-2,2.2981433E-2,4.7605902E-2,4.35545E-2,7.1514845E-2,7.1414396E-2,9.895983E-2,8.907749E-2,1.19064756E-1,1.2203868E-1,7.864757E-3,5.659577E-3,8.330872E-3,-7.6634213E-3,-6.030387E-3,-6.2005846E-3,-4.797093E-3,-4.750341E-3,-3.3032328E-3,-5.1310947E-3,-3.968989E-3,-3.909755E-3,-2.7523458E-3,-3.6031757E-3,-2.360786E-3,-2.6661246E-3,-1.4447393E-3,-3.3416345E-3,-1.9184165E-3,-1.7084426E-3,-6.0409564E-4,-1.4554247E-3,-2.1293809E-4,-3.8808552E-4,8.296256E-4,-1.0224548E-3,2.6552062E-4,2.6584486E-4,1.2873731E-3,4.3041105E-4,1.6368007E-3,1.8587094E-3,3.0110092E-3,1.5903114E-3,2.698608E-3,2.9871266E-3,4.3379473E-3,2.8229652E-3,4.011664E-3,3.2885473E-3,5.1390813E-3,3.3072736E-3,4.7299615E-3,4.7615143E-3,6.4782277E-3,1.3788976E-3,6.12806E-3],"categories":[],"categories_nodes":[],"categories_segments":[],"categories_sizes":[],"default_left":[0,0,0,0,0,0,0,0,0,0,0,0,0,0,0,0,0,0,0,0,0,0,0,0,0,0,0,0,0,0,0,0,0,0,0,0,0,0,0,0,0,0,0,0,0,0,0,0,0,0,0,0,0,0,0,0,0,0,0,0,0,0,0,0,0,0,0,0,0,0,0,0,0,0,0,0,0,0,0,0,0,0,0,0,0,0,0,0,0,0,0,0,0,0,0,0,0,0,0,0,0,0,0],"id":1,"left_children":[1,3,5,7,9,11,13,15,17,19,21,23,25,27,29,-1,31,33,35,37,39,41,43,45,47,49,51,53,55,57,-1,-1,-1,59,-1,61,63,65,67,69,71,73,75,77,79,81,83,85,87,89,91,93,95,97,99,101,-1,-1,-1,-1,-1,-1,-1,-1,-1,-1,-1,-1,-1,-1,-1,-1,-1,-1,-1,-1,-1,-1,-1,-1,-1,-1,-1,-1,-1,-1,-1,-1,-1,-1,-1,-1,-1,-1,-1,-1,-1,-1,-1,-1,-1,-1,-1],"loss_changes":[2.318768E1,3.9034824E0,4.3088255E0,6.431036E-1,5.383582E-1,6.9045806E-1,5.645189E-1,6.1258316E-2,1.4592838E-1,1.2999105E-1,1.506452E-1,1.8099147E-1,1.5145588E-1,1.0651779E-1,8.152914E-2,0E0,5.3088665E-3,3.3998966E-2,6.482744E-2,4.9806595E-2,3.2291412E-2,7.203859E-2,4.0566374E-2,5.40032E-2,4.510215E-2,6.992078E-2,4.234445E-2,4.4606686E-2,4.6764374E-2,4.582405E-3,0E0,0E0,0E0,2.9418468E-3,0E0,1.3317108E-2,2.125144E-2,7.864714E-3,2.3332477E-2,4.1462183E-3,1.3849914E-2,3.5238802E-2,2.5822267E-2,2.130904E-2,2.1912899E-2,3.1141557E-2,1.4986452E-2,2.0748898E-2,1.8289179E-2,3.879428E-2,1.7966926E-2,1.9869208E-2,5.7971478E-3,9.190857E-3,1.8943667E-2,2.9871464E-3,0E0,0E0,0E0,0E0,0E0,0E0,0E0,0E0,0E0,0E0,0E0,0E0,0E0,0E0,0E0,0E0,0E0,0E0,0E0,0E0,0E0,0E0,0E0,0E0,0E0,0E0,0E0,0E0,0E0,0E0,0E0,0E0,0E0,0E0,0E0,0E0,0E0,0E0,0E0,0E0,0E0,0E0,0E0,0E0,0E0,0E0,0E0],"parents":[2147483647,0,0,1,1,2,2,3,3,4,4,5,5,6,6,7,7,8,8,9,9,10,10,11,11,12,12,13,13,14,14,16,16,17,17,18,18,19,19,20,20,21,21,22,22,23,23,24,24,25,25,26,26,27,27,28,28,29,29,33,33,35,35,36,36,37,37,38,38,39,39,40,40,41,41,42,42,43,43,44,44,45,45,46,46,47,47,48,48,49,49,50,50,51,51,52,52,53,53,54,54,55,55],"right_children":[2,4,6,8,10,12,14,16,18,20,22,24,26,28,30,-1,32,34,36,38,40,42,44,46,48,50,52,54,56,58,-1,-1,-1,60,-1,62,64,66,68,70,72,74,76,78,80,82,84,86,88,90,92,94,96,98,100,102,-1,-1,-1,-1,-1,-1,-1,-1,-1,-1,-1,-1,-1,-1,-1,-1,-1,-1,-1,-1,-1,-1,-1,-1,-1,-1,-1,-1,-1,-1,-1,-1,-1,-1,-1,-1,-1,-1,-1,-1,-1,-1,-1,-1,-1,-1,-1],"split_conditions":[4.7693983E-1,3.6049867E-1,6.064482E-1,2.7451333E-1,4.18716E-1,5.343508E-1,6.887655E-1,2.3833017E-1,4.25E-1,5.25E-1,5E-1,4.5E-1,5E-1,6.415613E-1,7.262508E-1,-1.0400641E-2,6.25E-1,3.31374E-1,3.2851332E-1,3.8512233E-1,8.952E0,1.0562E1,7.0146E1,1.4168E1,5.053095E-1,5.833617E-1,5.800552E-1,4.25E-1,5E-1,9.084E0,1.05051985E-2,-8.70555E-3,-6.905336E-3,1.316E1,-5.923843E-3,1.2969E1,1.2128E1,1.2009E1,8.2636E1,1.008E2,3.7823033E-1,7.4372E1,9.1597E1,1.4168E1,1.2557E1,9.1597E1,7.1428E1,7.2469E1,1.4214E1,1.4009E1,1.5396E1,1.1276E1,2.8056E1,9.381E0,1.1276E1,5.445E0,7.864757E-3,5.659577E-3,8.330872E-3,-7.6634213E-3,-6.030387E-3,-6.2005846E-3,-4.797093E-3,-4.750341E-3,-3.3032328E-3,-5.1310947E-3,-3.968989E-3,-3.909755E-3,-2.7523458E-3,-3.6031757E-3,-2.360786E-3,-2.6661246E-3,-1.4447393E-3,-3.3416345E-3,-1.9184165E-3,-1.7084426E-3,-6.0409564E-4,-1.4554247E-3,-2.1293809E-4,-3.8808552E-4,8.296256E-4,-1.0224548E-3,2.6552062E-4,2.6584486E-4,1.2873731E-3,4.3041105E-4,1.6368007E-3,1.8587094E-3,3.0110092E-3,1.5903114E-3,2.698608E-3,2.9871266E-3,4.3379473E-3,2.8229652E-3,4.011664E-3,3.2885473E-3,5.1390813E-3,3.3072736E-3,4.7299615E-3,4.7615143E-3,6.4782277E-3,1.3788976E-3,6.12806E-3],"split_indices":[10,10,10,10,10,10,10,10,8,8,8,8,8,10,10,0,8,10,10,10,5,5,3,5,10,10,10,8,8,5,0,0,0,5,0,5,5,5,3,3,10,3,3,5,5,3,3,3,5,5,5,5,3,5,5,5,0,0,0,0,0,0,0,0,0,0,0,0,0,0,0,0,0,0,0,0,0,0,0,0,0,0,0,0,0,0,0,0,0,0,0,0,0,0,0,0,0,0,0,0,0,0,0],"split_type":[0,0,0,0,0,0,0,0,0,0,0,0,0,0,0,0,0,0,0,0,0,0,0,0,0,0,0,0,0,0,0,0,0,0,0,0,0,0,0,0,0,0,0,0,0,0,0,0,0,0,0,0,0,0,0,0,0,0,0,0,0,0,0,0,0,0,0,0,0,0,0,0,0,0,0,0,0,0,0,0,0,0,0,0,0,0,0,0,0,0,0,0,0,0,0,0,0,0,0,0,0,0,0],"sum_hessian":[4.007E3,1.962E3,2.045E3,7.36E2,1.226E3,1.378E3,6.67E2,2E2,5.36E2,5.28E2,6.98E2,6.38E2,7.4E2,4.61E2,2.06E2,8.7E1,1.13E2,2.48E2,2.88E2,3.44E2,1.84E2,4.07E2,2.91E2,3.34E2,3.04E2,4.58E2,2.82E2,2.45E2,2.16E2,1.17E2,8.9E1,7.8E1,3.5E1,1.39E2,1.09E2,1.52E2,1.36E2,1.32E2,2.12E2,5.9E1,1.25E2,1.86E2,2.21E2,1.45E2,1.46E2,1.89E2,1.45E2,1.49E2,1.55E2,3.3E2,1.28E2,1.84E2,9.8E1,1.21E2,1.24E2,1.28E2,8.8E1,1.1E1,1.06E2,1.11E2,2.8E1,1.03E2,4.9E1,7.9E1,5.7E1,8.4E1,4.8E1,1.22E2,9E1,4E1,1.9E1,3.4E1,9.1E1,8.7E1,9.9E1,1.29E2,9.2E1,8.8E1,5.7E1,7.5E1,7.1E1,1.06E2,8.3E1,6.7E1,7.8E1,6.1E1,8.8E1,8.7E1,6.8E1,1.57E2,1.73E2,7.5E1,5.3E1,7.1E1,1.13E2,1.2E1,8.6E1,2.6E1,9.5E1,4.1E1,8.3E1,1E0,1.27E2],"tree_param":{"num_deleted":"0","num_feature":"11","num_nodes":"103","size_leaf_vector":"1"}},{"base_weights":[1.1276472E-3,-7.580484E-2,6.9181375E-2,-1.3863364E-1,-4.6845663E-2,3.3410586E-2,1.239929E-1,-1.772348E-1,-1.19226925E-1,-6.905908E-2,-2.5964754E-2,1.4963412E-2,5.4280337E-2,9.935842E-2,1.6180322E-1,-1.9777438E-1,-1.567692E-1,-1.3197713E-1,-9.8683484E-2,-8.2817204E-2,-5.397011E-2,-3.934899E-2,-1.1585431E-2,2.478695E-3,3.5440344E-2,4.269354E-2,7.4257836E-2,8.247767E-2,1.14775784E-1,1.4613836E-1,9.942497E-3,-2.849336E-3,-9.933773E-3,-8.257166E-3,-6.422031E-3,-1.4534311E-1,-1.1872965E-1,-1.1058643E-1,-8.568206E-2,-9.754375E-2,-6.97212E-2,-6.505215E-2,-4.012814E-2,-4.556395E-2,-2.1569323E-2,1.2561246E-3,-2.3964833E-2,1.3167711E-2,-7.974366E-3,2.3725335E-2,4.420467E-2,5.4153252E-2,3.3812232E-2,8.48364E-2,6.141775E-2,6.996661E-2,9.472288E-2,1.0508354E-1,1.2801503E-1,6.704805E-3,8.309469E-3,-7.3341574E-3,-3.5575745E-3,-5.358293E-3,-6.4562256E-3,-2.7420942E-3,-5.6429273E-3,-3.6415178E-3,-4.8815887E-3,-4.4909925E-3,-5.3670304E-3,-3.9125024E-3,-2.7041961E-3,-3.7954785E-3,-2.6283641E-3,-1.5326955E-3,-2.5153845E-3,-1.8819001E-3,-3.057825E-3,-6.478652E-4,-1.5654088E-3,6.51332E-4,-4.0739757E-4,-1.5921192E-3,-6.9768634E-4,1.510796E-4,1.1317262E-3,-1.3201234E-3,-8.343431E-5,1.3547248E-3,-3.4448196E-4,2.518987E-3,1.321343E-3,2.1173765E-3,3.1708942E-3,1.0242386E-3,1.983917E-3,3.4995966E-3,4.477303E-3,2.37795E-3,3.455991E-3,2.598799E-3,3.6952558E-3,3.5452358E-3,5.0531677E-3,4.1396427E-3,5.572616E-3,6.67706E-3,4.8649553E-3],"categories":[],"categories_nodes":[],"categories_segments":[],"categories_sizes":[],"default_left":[0,0,0,0,0,0,0,0,0,0,0,0,0,0,0,0,0,0,0,0,0,0,0,0,0,0,0,0,0,0,0,0,0,0,0,0,0,0,0,0,0,0,0,0,0,0,0,0,0,0,0,0,0,0,0,0,0,0,0,0,0,0,0,0,0,0,0,0,0,0,0,0,0,0,0,0,0,0,0,0,0,0,0,0,0,0,0,0,0,0,0,0,0,0,0,0,0,0,0,0,0,0,0,0,0,0,0,0,0],"id":2,"left_children":[1,3,5,7,9,11,13,15,17,19,21,23,25,27,29,31,33,35,37,39,41,43,45,47,49,51,53,55,57,59,-1,-1,-1,-1,-1,61,63,65,67,69,71,73,75,77,79,81,83,85,87,89,91,93,95,97,99,101,103,105,107,-1,-1,-1,-1,-1,-1,-1,-1,-1,-1,-1,-1,-1,-1,-1,-1,-1,-1,-1,-1,-1,-1,-1,-1,-1,-1,-1,-1,-1,-1,-1,-1,-1,-1,-1,-1,-1,-1,-1,-1,-1,-1,-1,-1,-1,-1,-1,-1,-1,-1],"loss_changes":[2.0947414E1,3.410469E0,4.1583204E0,4.2234898E-1,5.951643E-1,4.9428225E-1,7.644682E-1,5.1383972E-2,9.096336E-2,1.2486267E-1,1.2752753E-1,1.7477584E-1,1.3640916E-1,1.2326431E-1,1.6186905E-1,6.03199E-4,3.2234192E-3,2.559328E-2,1.4666557E-2,5.568552E-2,4.340875E-2,3.7029207E-2,5.1218696E-2,4.770323E-2,2.5543869E-2,3.7251472E-2,2.4672031E-2,3.1213164E-2,2.0423412E-2,3.4457684E-2,0E0,0E0,0E0,0E0,0E0,1.0957718E-3,1.4281273E-3,3.6898851E-3,5.0218105E-3,1.709342E-3,1.9107342E-2,1.8375933E-2,1.1574179E-2,2.9088974E-2,7.226605E-3,1.7705983E-2,1.2489207E-2,2.019845E-2,2.5055513E-2,1.1842243E-2,1.4806151E-2,1.5470803E-2,1.6308695E-2,1.982212E-3,7.707089E-3,5.086601E-3,1.1258364E-2,1.3203025E-2,5.169034E-3,0E0,0E0,0E0,0E0,0E0,0E0,0E0,0E0,0E0,0E0,0E0,0E0,0E0,0E0,0E0,0E0,0E0,0E0,0E0,0E0,0E0,0E0,0E0,0E0,0E0,0E0,0E0,0E0,0E0,0E0,0E0,0E0,0E0,0E0,0E0,0E0,0E0,0E0,0E0,0E0,0E0,0E0,0E0,0E0,0E0,0E0,0E0,0E0,0E0,0E0],"parents":[2147483647,0,0,1,1,2,2,3,3,4,4,5,5,6,6,7,7,8,8,9,9,10,10,11,11,12,12,13,13,14,14,15,15,16,16,17,17,18,18,19,19,20,20,21,21,22,22,23,23,24,24,25,25,26,26,27,27,28,28,29,29,35,35,36,36,37,37,38,38,39,39,40,40,41,41,42,42,43,43,44,44,45,45,46,46,47,47,48,48,49,49,50,50,51,51,52,52,53,53,54,54,55,55,56,56,57,57,58,58],"right_children":[2,4,6,8,10,12,14,16,18,20,22,24,26,28,30,32,34,36,38,40,42,44,46,48,50,52,54,56,58,60,-1,-1,-1,-1,-1,62,64,66,68,70,72,74,76,78,80,82,84,86,88,90,92,94,96,98,100,102,104,106,108,-1,-1,-1,-1,-1,-1,-1,-1,-1,-1,-1,-1,-1,-1,-1,-1,-1,-1,-1,-1,-1,-1,-1,-1,-1,-1,-1,-1,-1,-1,-1,-1,-1,-1,-1,-1,-1,-1,-1,-1,-1,-1,-1,-1,-1,-1,-1,-1,-1,-1],"split_conditions":[4.7403467E-1,3.467255E-1,5.91187E-1,2.7451333E-1,4.16153E-1,5.324888E-1,6.59258E-1,2.3833017E-1,5E-1,4.5E-1,4.5E-1,5.25E-1,5E-1,4.25E-1,7.262508E-1,1.9E-2,6.75E-1,3.1414783E-1,3.1910115E-1,3.8512233E-1,8.7681E1,4.6026966E-1,5.794E1,6.4702E1,4.997515E-1,6.3576E1,6.8857E1,6.189795E-1,6.303047E-1,5.25E-1,9.942497E-3,-2.849336E-3,-9.933773E-3,-8.257166E-3,-6.422031E-3,1.38125E2,5.794E1,3.2052E1,5.6822E1,6.4212E1,8.54E1,3.8320133E-1,5.8147E1,7.1172E1,6.0962E1,5.3252E1,4.4437233E-1,4.9761218E-1,3.8087E1,8.8741E1,7.7619E1,5.5881E-1,4.8633E1,5.4755884E-1,5.600852E-1,3.3144E1,4.8904E1,4.5864E1,8.3052E1,6.704805E-3,8.309469E-3,-7.3341574E-3,-3.5575745E-3,-5.358293E-3,-6.4562256E-3,-2.7420942E-3,-5.6429273E-3,-3.6415178E-3,-4.8815887E-3,-4.4909925E-3,-5.3670304E-3,-3.9125024E-3,-2.7041961E-3,-3.7954785E-3,-2.6283641E-3,-1.5326955E-3,-2.5153845E-3,-1.8819001E-3,-3.057825E-3,-6.478652E-4,-1.5654088E-3,6.51332E-4,-4.0739757E-4,-1.5921192E-3,-6.9768634E-4,1.510796E-4,1.1317262E-3,-1.3201234E-3,-8.343431E-5,1.3547248E-3,-3.4448196E-4,2.518987E-3,1.321343E-3,2.1173765E-3,3.1708942E-3,1.0242386E-3,1.983917E-3,3.4995966E-3,4.477303E-3,2.37795E-3,3.455991E-3,2.598799E-3,3.6952558E-3,3.5452358E-3,5.0531677E-3,4.1396427E-3,5.572616E-3,6.67706E-3,4.8649553E-3],"split_indices":[10,10,10,10,10,10,10,10,8,8,8,8,8,8,10,4,8,10,10,10,3,10,2,2,10,2,2,10,10,8,0,0,0,0,0,3,2,2,2,2,3,10,2,2,2,0,10,10,3,2,2,10,3,10,10,3,3,3,2,0,0,0,0,0,0,0,0,0,0,0,0,0,0,0,0,0,0,0,0,0,0,0,0,0,0,0,0,0,0,0,0,0,0,0,0,0,0,0,0,0,0,0,0,0,0,0,0,0,0],"split_type":[0,0,0,0,0,0,0,0,0,0,0,0,0,0,0,0,0,0,0,0,0,0,0,0,0,0,0,0,0,0,0,0,0,0,0,0,0,0,0,0,0,0,0,0,0,0,0,0,0,0,0,0,0,0,0,0,0,0,0,0,0,0,0,0,0,0,0,0,0,0,0,0,0,0,0,0,0,0,0,0,0,0,0,0,0,0,0,0,0,0,0,0,0,0,0,0,0,0,0,0,0,0,0,0,0,0,0,0,0],"sum_hessian":[3.999E3,1.877E3,2.122E3,5.91E2,1.286E3,1.285E3,8.37E2,1.95E2,3.96E2,6.22E2,6.64E2,6.83E2,6.02E2,5.09E2,3.28E2,9.3E1,1.02E2,2.41E2,1.55E2,3.23E2,2.99E2,3.43E2,3.21E2,4.25E2,2.58E2,3.83E2,2.19E2,2.46E2,2.63E2,2.34E2,9.4E1,1E0,9.2E1,7.5E1,2.7E1,1.15E2,1.26E2,7.7E1,7.8E1,1.49E2,1.74E2,1.64E2,1.35E2,2.53E2,9E1,1.58E2,1.63E2,2.1E2,2.15E2,1.12E2,1.46E2,1.65E2,2.18E2,1.17E2,1.02E2,1.25E2,1.21E2,1.57E2,1.06E2,1.51E2,8.3E1,1.12E2,3E0,6.5E1,6.1E1,4E0,7.3E1,4.1E1,3.7E1,8.9E1,6E1,1.1E2,6.4E1,8.5E1,7.9E1,7.2E1,6.3E1,1.7E2,8.3E1,4.9E1,4.1E1,7E1,8.8E1,9E1,7.3E1,1.02E2,1.08E2,5.4E1,1.61E2,1.01E2,1.1E1,1.07E2,3.9E1,7.5E1,9E1,6.8E1,1.5E2,3.2E1,8.5E1,3.9E1,6.3E1,2.5E1,1E2,2.8E1,9.3E1,3.8E1,1.19E2,8.7E1,1.9E1],"tree_param":{"num_deleted":"0","num_feature":"11","num_nodes":"109","size_leaf_vector":"1"}},{"base_weights":[-7.067113E-5,-6.781207E-2,7.112343E-2,-1.2332237E-1,-3.716781E-2,4.2420864E-2,1.2872763E-1,-1.6819495E-1,-1.0605247E-1,-5.789763E-2,-1.8540708E-2,2.4144268E-2,6.351347E-2,1.12247564E-1,1.7231965E-1,-9.963767E-3,-1.5267453E-1,-1.2216609E-1,-9.155127E-2,-7.388448E-2,-4.3465223E-2,-3.12185E-2,-6.2714946E-3,9.989577E-3,3.8844395E-2,4.962909E-2,7.917865E-2,9.9007875E-2,1.300233E-1,1.5806942E-1,1.0133868E-2,-7.970939E-3,-6.079783E-3,-1.3447243E-1,-5.3328597E-3,-1.05192736E-1,-7.676866E-2,-6.220416E-2,-8.418384E-2,-5.4787174E-2,-3.1320937E-2,-3.9586376E-2,-1.6543042E-2,3.822878E-3,-1.823571E-2,1.2351613E-3,2.4922037E-2,2.3272766E-2,4.584213E-2,6.2064376E-2,4.0579908E-2,9.047413E-2,6.585928E-2,8.693432E-2,1.170958E-1,5.8555496E-3,7.4774907E-3,1.5869048E-1,2.0264373E-3,-7.34716E-3,-6.173765E-3,-5.6064785E-3,-4.625803E-3,-4.269564E-3,-3.0727508E-3,-3.9710356E-3,-2.6744094E-3,-4.5736847E-3,-3.463321E-3,-2.1875394E-3,-3.2848436E-3,-1.9606163E-3,-8.916577E-4,-1.3103414E-3,-2.4719073E-3,-1.2544462E-3,-3.8693365E-4,-2.5694675E-4,6.559139E-4,-1.6341087E-3,-5.1172444E-4,6.354758E-4,-5.486964E-4,3.7652292E-4,1.5649506E-3,1.5896991E-3,8.87516E-5,2.753225E-3,1.7789787E-3,2.4891167E-3,3.4943E-3,1.699708E-3,2.7196112E-3,3.972503E-3,4.975785E-3,2.5566884E-3,3.700787E-3,5.260774E-3,3.9755693E-3,6.2702284E-3,4.924502E-3,3.888075E-3,8.002716E-3],"categories":[],"categories_nodes":[],"categories_segments":[],"categories_sizes":[],"default_left":[0,0,0,0,0,0,0,0,0,0,0,0,0,0,0,0,0,0,0,0,0,0,0,0,0,0,0,0,0,0,0,0,0,0,0,0,0,0,0,0,0,0,0,0,0,0,0,0,0,0,0,0,0,0,0,0,0,0,0,0,0,0,0,0,0,0,0,0,0,0,0,0,0,0,0,0,0,0,0,0,0,0,0,0,0,0,0,0,0,0,0,0,0,0,0,0,0,0,0,0,0,0,0],"id":3,"left_children":[1,3,5,7,9,11,13,15,17,19,21,23,25,27,29,-1,31,33,35,37,39,41,43,45,47,49,51,53,55,57,-1,-1,-1,59,-1,61,63,65,67,69,71,73,75,77,79,81,83,85,87,89,91,93,95,97,99,-1,-1,101,-1,-1,-1,-1,-1,-1,-1,-1,-1,-1,-1,-1,-1,-1,-1,-1,-1,-1,-1,-1,-1,-1,-1,-1,-1,-1,-1,-1,-1,-1,-1,-1,-1,-1,-1,-1,-1,-1,-1,-1,-1,-1,-1,-1,-1],"loss_changes":[1.9406897E1,3.503026E0,3.2384872E0,5.5019665E-1,5.124879E-1,5.0385857E-1,4.4905376E-1,6.701708E-2,1.1312628E-1,1.4191699E-1,1.089979E-1,1.460973E-1,1.283114E-1,9.9151134E-2,4.453373E-2,0E0,9.750366E-3,3.318119E-2,4.919505E-2,3.0492544E-2,4.407054E-2,4.1711956E-2,4.3305814E-2,4.703021E-2,3.6526382E-2,3.4053385E-2,3.6768794E-2,5.0313473E-2,3.2912493E-2,2.693653E-3,0E0,0E0,0E0,3.7026405E-4,0E0,2.376914E-3,1.323843E-2,1.7210364E-2,1.0519505E-2,1.771468E-2,1.6649991E-2,2.757126E-2,9.361468E-3,1.6311623E-2,1.862216E-2,3.2080315E-2,1.4514752E-2,1.991092E-2,2.0471752E-2,9.489775E-3,1.5525192E-2,7.144451E-3,1.230979E-2,1.4703155E-2,4.3447018E-3,0E0,0E0,1.2402534E-3,0E0,0E0,0E0,0E0,0E0,0E0,0E0,0E0,0E0,0E0,0E0,0E0,0E0,0E0,0E0,0E0,0E0,0E0,0E0,0E0,0E0,0E0,0E0,0E0,0E0,0E0,0E0,0E0,0E0,0E0,0E0,0E0,0E0,0E0,0E0,0E0,0E0,0E0,0E0,0E0,0E0,0E0,0E0,0E0,0E0],"parents":[2147483647,0,0,1,1,2,2,3,3,4,4,5,5,6,6,7,7,8,8,9,9,10,10,11,11,12,12,13,13,14,14,16,16,17,17,18,18,19,19,20,20,21,21,22,22,23,23,24,24,25,25,26,26,27,27,28,28,29,29,33,33,35,35,36,36,37,37,38,38,39,39,40,40,41,41,42,42,43,43,44,44,45,45,46,46,47,47,48,48,49,49,50,50,51,51,52,52,53,53,54,54,57,57],"right_children":[2,4,6,8,10,12,14,16,18,20,22,24,26,28,30,-1,32,34,36,38,40,42,44,46,48,50,52,54,56,58,-1,-1,-1,60,-1,62,64,66,68,70,72,74,76,78,80,82,84,86,88,90,92,94,96,98,100,-1,-1,102,-1,-1,-1,-1,-1,-1,-1,-1,-1,-1,-1,-1,-1,-1,-1,-1,-1,-1,-1,-1,-1,-1,-1,-1,-1,-1,-1,-1,-1,-1,-1,-1,-1,-1,-1,-1,-1,-1,-1,-1,-1,-1,-1,-1,-1],"split_conditions":[4.870415E-1,3.6049867E-1,6.108425E-1,2.7451333E-1,4.2585734E-1,5.49241E-1,6.9872415E-1,2.239035E-1,4.25E-1,4.25E-1,4.25E-1,4.5E-1,4.5E-1,6.49415E-1,7.51131E-1,-9.963767E-3,6.75E-1,3.31374E-1,3.2555434E-1,5.7642E1,8.4507E1,4.657645E-1,6.2329E1,5.235275E-1,5.053095E-1,6.4212E1,6.6719E1,5.25E-1,5.25E-1,9.4513E1,1.0133868E-2,-7.970939E-3,-6.079783E-3,5.2473E1,-5.3328597E-3,8.1373E1,8.7681E1,3.8512233E-1,8.54E1,6.214E1,4.0462565E-1,5.6537E1,8.5949E1,4.539995E-1,4.4437233E-1,6.802E1,4.0021E1,7.6938E1,6.3361E1,6.9013E1,5.8753216E-1,5.800552E-1,5.3488E1,5.4121E1,7.4324E1,5.8555496E-3,7.4774907E-3,1.286E0,2.0264373E-3,-7.34716E-3,-6.173765E-3,-5.6064785E-3,-4.625803E-3,-4.269564E-3,-3.0727508E-3,-3.9710356E-3,-2.6744094E-3,-4.5736847E-3,-3.463321E-3,-2.1875394E-3,-3.2848436E-3,-1.9606163E-3,-8.916577E-4,-1.3103414E-3,-2.4719073E-3,-1.2544462E-3,-3.8693365E-4,-2.5694675E-4,6.559139E-4,-1.6341087E-3,-5.1172444E-4,6.354758E-4,-5.486964E-4,3.7652292E-4,1.5649506E-3,1.5896991E-3,8.87516E-5,2.753225E-3,1.7789787E-3,2.4891167E-3,3.4943E-3,1.699708E-3,2.7196112E-3,3.972503E-3,4.975785E-3,2.5566884E-3,3.700787E-3,5.260774E-3,3.9755693E-3,6.2702284E-3,4.924502E-3,3.888075E-3,8.002716E-3],"split_indices":[10,10,10,10,10,10,10,10,8,8,8,8,8,10,10,0,8,10,10,2,3,10,2,10,10,2,2,8,8,2,0,0,0,3,0,3,3,10,3,2,10,2,3,10,10,2,3,2,2,3,10,10,3,2,2,0,0,7,0,0,0,0,0,0,0,0,0,0,0,0,0,0,0,0,0,0,0,0,0,0,0,0,0,0,0,0,0,0,0,0,0,0,0,0,0,0,0,0,0,0,0,0,0],"split_type":[0,0,0,0,0,0,0,0,0,0,0,0,0,0,0,0,0,0,0,0,0,0,0,0,0,0,0,0,0,0,0,0,0,0,0,0,0,0,0,0,0,0,0,0,0,0,0,0,0,0,0,0,0,0,0,0,0,0,0,0,0,0,0,0,0,0,0,0,0,0,0,0,0,0,0,0,0,0,0,0,0,0,0,0,0,0,0,0,0,0,0,0,0,0,0,0,0,0,0,0,0,0,0],"sum_hessian":[4.022E3,2.061E3,1.961E3,7.32E2,1.329E3,1.31E3,6.51E2,2.01E2,5.31E2,6.28E2,7.01E2,7.03E2,6.07E2,4.75E2,1.76E2,6.3E1,1.38E2,2.48E2,2.83E2,2.96E2,3.32E2,3.44E2,3.57E2,3.59E2,3.44E2,3.24E2,2.83E2,2.76E2,1.99E2,1.24E2,5.2E1,1.1E2,2.8E1,1.34E2,1.14E2,1.44E2,1.39E2,1.42E2,1.54E2,1.7E2,1.62E2,2.18E2,1.26E2,1.94E2,1.63E2,2.27E2,1.32E2,1.08E2,2.36E2,1.34E2,1.9E2,1.5E2,1.33E2,1.69E2,1.07E2,1.24E2,7.5E1,1.23E2,1E0,5.7E1,7.7E1,8.8E1,5.6E1,8.6E1,5.3E1,4.5E1,9.7E1,1E2,5.4E1,8.7E1,8.3E1,1.01E2,6.1E1,9.4E1,1.24E2,6.3E1,6.3E1,9.9E1,9.5E1,5.7E1,1.06E2,1.17E2,1.1E2,3.6E1,9.6E1,7.7E1,3.1E1,1.22E2,1.14E2,5.5E1,7.9E1,1.31E2,5.9E1,7.2E1,7.8E1,5E1,8.3E1,4.5E1,1.24E2,7E1,3.7E1,3E0,1.2E2],"tree_param":{"num_deleted":"0","num_feature":"11","num_nodes":"103","size_leaf_vector":"1"}},{"base_weights":[-2.6986582E-4,-4.7469757E-2,4.5598283E-2,-8.545178E-2,4.4484413E-4,9.478082E-3,9.06275E-2,-1.16099924E-1,-4.6087842E-2,-3.178244E-2,3.150716E-2,-2.3736715E-2,4.011729E-2,5.306249E-2,1.2258389E-1,-1.38523E-1,-9.1624975E-2,-7.273382E-2,-2.9335003E-2,-5.3049713E-2,-9.345525E-3,1.25799235E-2,5.1340044E-2,-4.769754E-2,-4.9167424E-3,1.2133579E-2,6.0305715E-2,2.5963642E-2,7.271389E-2,9.4422676E-2,1.4465885E-1,-1.5651898E-1,-1.1439584E-1,-1.0969997E-1,-6.788338E-2,-9.015041E-2,-5.071922E-2,-5.51529E-2,-1.0767451E-2,-6.8442084E-2,-2.9358327E-2,-2.4632387E-2,1.3245101E-2,5.6184665E-4,4.4046924E-2,3.5925012E-2,6.886222E-2,-6.832755E-2,-2.802153E-2,-3.7130963E-2,8.654269E-3,-1.4481983E-2,3.1086838E-2,3.615464E-2,8.2732126E-2,8.149623E-3,5.2193534E-2,6.1291266E-2,1.02524154E-1,7.013652E-2,1.1221517E-1,1.22148246E-1,1.6238956E-1,-8.795293E-3,-6.7812577E-3,-6.6798977E-3,-4.692649E-3,-6.362576E-3,-4.7004237E-3,-3.9508073E-3,-2.47253E-3,-4.7072615E-3,-2.7779674E-3,-3.2243673E-3,-1.1191778E-3,-3.9547035E-3,-2.1405376E-3,-1.3016359E-3,3.7473228E-4,-4.240966E-3,-2.4579382E-3,-2.1045853E-3,-2.2937728E-4,-2.2575844E-3,-3.9325282E-4,-3.6027693E-4,1.5791785E-3,-7.2037807E-4,9.2391757E-4,1.7268214E-3,3.2126755E-3,1.3596474E-3,2.9134897E-3,2.470996E-3,4.530573E-3,-4.038756E-3,-1.5183482E-3,-2.6013812E-3,-6.752419E-4,-2.608678E-3,-6.0009584E-4,-2.2643234E-4,1.4965389E-3,-1.1789582E-3,6.6832773E-4,6.791828E-4,2.7008557E-3,1.1580487E-3,2.8149185E-3,3.5300364E-3,5.542188E-3,-1.1313265E-3,9.743778E-4,4.222833E-4,3.3445973E-3,1.9328211E-3,3.5108519E-3,3.5586883E-3,5.4867286E-3,2.4694407E-3,4.4916696E-3,4.264306E-3,6.2562735E-3,4.893375E-3,6.7691314E-3,7.236428E-3,9.051943E-3],"categories":[],"categories_nodes":[],"categories_segments":[],"categories_sizes":[],"default_left":[0,0,0,0,0,0,0,0,0,0,0,0,0,0,0,0,0,0,0,0,0,0,0,0,0,0,0,0,0,0,0,0,0,0,0,0,0,0,0,0,0,0,0,0,0,0,0,0,0,0,0,0,0,0,0,0,0,0,0,0,0,0,0,0,0,0,0,0,0,0,0,0,0,0,0,0,0,0,0,0,0,0,0,0,0,0,0,0,0,0,0,0,0,0,0,0,0,0,0,0,0,0,0,0,0,0,0,0,0,0,0,0,0,0,0,0,0,0,0,0,0,0,0,0,0,0,0],"id":4,"left_children":[1,3,5,7,9,11,13,15,17,19,21,23,25,27,29,31,33,35,37,39,41,43,45,47,49,51,53,55,57,59,61,63,65,67,69,71,73,75,77,79,81,83,85,87,89,91,93,95,97,99,101,103,105,107,109,111,113,115,117,119,121,123,125,-1,-1,-1,-1,-1,-1,-1,-1,-1,-1,-1,-1,-1,-1,-1,-1,-1,-1,-1,-1,-1,-1,-1,-1,-1,-1,-1,-1,-1,-1,-1,-1,-1,-1,-1,-1,-1,-1,-1,-1,-1,-1,-1,-1,-1,-1,-1,-1,-1,-1,-1,-1,-1,-1,-1,-1,-1,-1,-1,-1,-1,-1,-1,-1],"loss_changes":[8.623081E0,3.5724893E0,3.2845988E0,1.315692E0,8.709174E-1,1.1427838E0,1.0726929E0,3.2482147E-1,2.125827E-1,2.0325667E-1,1.6564819E-1,2.4282321E-1,3.291974E-1,2.1911204E-1,2.8784466E-1,1.2060213E-1,1.20004416E-1,6.6360235E-2,1.4178061E-1,7.785261E-2,7.250228E-2,8.619865E-2,5.5868804E-2,9.4287574E-2,1.3278675E-1,1.2454531E-1,1.8061876E-1,8.181237E-2,7.543898E-2,8.546579E-2,8.792925E-2,4.9054146E-2,4.26867E-2,3.4030914E-2,2.2974849E-2,8.864224E-3,3.132738E-2,3.3254117E-2,4.8702087E-2,3.751701E-2,2.7563483E-2,4.265161E-2,3.210542E-2,4.478734E-2,9.887911E-3,2.1244064E-2,3.7807524E-2,5.188656E-2,4.216154E-2,3.339439E-2,6.0159635E-2,2.6409516E-2,5.706106E-2,4.188332E-2,5.1855206E-2,3.742836E-2,4.5089766E-2,3.284359E-2,6.8829656E-3,3.3977717E-2,3.2090902E-2,2.6275396E-2,2.2544622E-2,0E0,0E0,0E0,0E0,0E0,0E0,0E0,0E0,0E0,0E0,0E0,0E0,0E0,0E0,0E0,0E0,0E0,0E0,0E0,0E0,0E0,0E0,0E0,0E0,0E0,0E0,0E0,0E0,0E0,0E0,0E0,0E0,0E0,0E0,0E0,0E0,0E0,0E0,0E0,0E0,0E0,0E0,0E0,0E0,0E0,0E0,0E0,0E0,0E0,0E0,0E0,0E0,0E0,0E0,0E0,0E0,0E0,0E0,0E0,0E0,0E0,0E0,0E0,0E0],"parents":[2147483647,0,0,1,1,2,2,3,3,4,4,5,5,6,6,7,7,8,8,9,9,10,10,11,11,12,12,13,13,14,14,15,15,16,16,17,17,18,18,19,19,20,20,21,21,22,22,23,23,24,24,25,25,26,26,27,27,28,28,29,29,30,30,31,31,32,32,33,33,34,34,35,35,36,36,37,37,38,38,39,39,40,40,41,41,42,42,43,43,44,44,45,45,46,46,47,47,48,48,49,49,50,50,51,51,52,52,53,53,54,54,55,55,56,56,57,57,58,58,59,59,60,60,61,61,62,62],"right_children":[2,4,6,8,10,12,14,16,18,20,22,24,26,28,30,32,34,36,38,40,42,44,46,48,50,52,54,56,58,60,62,64,66,68,70,72,74,76,78,80,82,84,86,88,90,92,94,96,98,100,102,104,106,108,110,112,114,116,118,120,122,124,126,-1,-1,-1,-1,-1,-1,-1,-1,-1,-1,-1,-1,-1,-1,-1,-1,-1,-1,-1,-1,-1,-1,-1,-1,-1,-1,-1,-1,-1,-1,-1,-1,-1,-1,-1,-1,-1,-1,-1,-1,-1,-1,-1,-1,-1,-1,-1,-1,-1,-1,-1,-1,-1,-1,-1,-1,-1,-1,-1,-1,-1,-1,-1,-1],"split_conditions":[5.4868E1,6.5827E1,6.6451E1,1.3021E1,1.284E1,1.2307E1,1.1896E1,5.0024E1,4.9101E1,5.027E1,7.0392E1,6.0063E1,6.0063E1,5.906E1,5.9269E1,9.436E0,6.1244E1,6.1017E1,5.9318E1,7.1594E1,9.694E0,5.1573E1,5.0429E1,8.756E0,5.7581E1,5.9224E1,5.9605E1,7.1379E1,7.2556E1,1.5962E1,7.0534E1,6.0479E1,6.0546E1,8.911E0,5.3005E1,1.8931E1,1.7287E1,1.5894E1,1.6665E1,9.57E0,9.996E0,6.9796E1,6.9556E1,1.6601E1,1.7335E1,1.8175E1,1.6447E1,6.2746E1,5.9405E1,9.744E0,1.0102E1,1.7855E1,1.6665E1,1.7214E1,1.8058E1,7.175E0,6.911E0,6.8358E1,6.7E0,6.9947E1,6.9641E1,1.5315E1,1.6505E1,-8.795293E-3,-6.7812577E-3,-6.6798977E-3,-4.692649E-3,-6.362576E-3,-4.7004237E-3,-3.9508073E-3,-2.47253E-3,-4.7072615E-3,-2.7779674E-3,-3.2243673E-3,-1.1191778E-3,-3.9547035E-3,-2.1405376E-3,-1.3016359E-3,3.7473228E-4,-4.240966E-3,-2.4579382E-3,-2.1045853E-3,-2.2937728E-4,-2.2575844E-3,-3.9325282E-4,-3.6027693E-4,1.5791785E-3,-7.2037807E-4,9.2391757E-4,1.7268214E-3,3.2126755E-3,1.3596474E-3,2.9134897E-3,2.470996E-3,4.530573E-3,-4.038756E-3,-1.5183482E-3,-2.6013812E-3,-6.752419E-4,-2.608678E-3,-6.0009584E-4,-2.2643234E-4,1.4965389E-3,-1.1789582E-3,6.6832773E-4,6.791828E-4,2.7008557E-3,1.1580487E-3,2.8149185E-3,3.5300364E-3,5.542188E-3,-1.1313265E-3,9.743778E-4,4.222833E-4,3.3445973E-3,1.9328211E-3,3.5108519E-3,3.5586883E-3,5.4867286E-3,2.4694407E-3,4.4916696E-3,4.264306E-3,6.2562735E-3,4.893375E-3,6.7691314E-3,7.236428E-3,9.051943E-3],"split_indices":[0,1,1,5,5,5,5,0,0,0,1,1,1,0,0,5,1,1,1,1,5,0,0,5,0,0,0,1,1,5,1,1,1,5,0,5,5,5,5,5,5,1,1,5,5,5,5,0,0,5,5,5,5,5,5,5,5,1,5,1,1,5,5,0,0,0,0,0,0,0,0,0,0,0,0,0,0,0,0,0,0,0,0,0,0,0,0,0,0,0,0,0,0,0,0,0,0,0,0,0,0,0,0,0,0,0,0,0,0,0,0,0,0,0,0,0,0,0,0,0,0,0,0,0,0,0,0],"split_type":[0,0,0,0,0,0,0,0,0,0,0,0,0,0,0,0,0,0,0,0,0,0,0,0,0,0,0,0,0,0,0,0,0,0,0,0,0,0,0,0,0,0,0,0,0,0,0,0,0,0,0,0,0,0,0,0,0,0,0,0,0,0,0,0,0,0,0,0,0,0,0,0,0,0,0,0,0,0,0,0,0,0,0,0,0,0,0,0,0,0,0,0,0,0,0,0,0,0,0,0,0,0,0,0,0,0,0,0,0,0,0,0,0,0,0,0,0,0,0,0,0,0,0,0,0,0,0],"sum_hessian":[3.981E3,1.962E3,2.019E3,1.094E3,8.68E2,1.121E3,8.98E2,6.14E2,4.8E2,4.26E2,4.42E2,5.38E2,5.83E2,4.14E2,4.84E2,3.18E2,2.96E2,1.84E2,2.96E2,2.18E2,2.08E2,2.27E2,2.15E2,2.36E2,3.02E2,2.45E2,3.38E2,1.75E2,2.39E2,2.15E2,2.69E2,1.79E2,1.39E2,1.66E2,1.3E2,1.01E2,8.3E1,1.23E2,1.73E2,1.31E2,8.7E1,1.24E2,8.4E1,1.65E2,6.2E1,1.16E2,9.9E1,1.14E2,1.22E2,8.9E1,2.13E2,1.02E2,1.43E2,1.64E2,1.74E2,1.05E2,7E1,1.75E2,6.4E1,9.3E1,1.22E2,1.22E2,1.47E2,8.9E1,9E1,6.9E1,7E1,7.5E1,9.1E1,7.9E1,5.1E1,8.9E1,1.2E1,5.5E1,2.8E1,4E1,8.3E1,9.4E1,7.9E1,6.9E1,6.2E1,5.7E1,3E1,5.5E1,6.9E1,4E1,4.4E1,9E1,7.5E1,4.4E1,1.8E1,8.5E1,3.1E1,5.4E1,4.5E1,8.5E1,2.9E1,4.5E1,7.7E1,5.5E1,3.4E1,1.32E2,8.1E1,7.7E1,2.5E1,8.2E1,6.1E1,1.01E2,6.3E1,1.24E2,5E1,2.8E1,7.7E1,1.8E1,5.2E1,5.1E1,1.24E2,1.4E1,5E1,4.7E1,4.6E1,4.2E1,8E1,4.6E1,7.6E1,8E1,6.7E1],"tree_param":{"num_deleted":"0","num_feature":"11","num_nodes":"127","size_leaf_vector":"1"}},{"base_weights":[7.522923E-4,-4.297263E-2,4.352958E-2,-7.929265E-2,4.5035887E-4,6.3236114E-3,8.374062E-2,-1.0802937E-1,-4.329666E-2,-3.83617E-2,2.646719E-2,-1.9683383E-2,4.4230733E-2,4.379502E-2,1.1358554E-1,-1.23772E-1,-7.632106E-2,-6.7630515E-2,-2.4889397E-2,-5.2425805E-2,-1.0378966E-2,9.134203E-3,4.4750404E-2,-4.025834E-2,-1.0439273E-3,1.7868366E-2,6.406408E-2,2.0238973E-2,6.2512554E-2,9.587173E-2,1.3976605E-1,-1.4199314E-1,-1.0116651E-1,-9.46869E-2,-5.8104336E-2,-7.983201E-2,-3.412077E-2,-5.1853955E-2,-8.784575E-3,-6.483506E-2,-2.6486635E-2,-3.4825005E-2,3.6773712E-3,-1.1779819E-2,2.3998875E-2,1.9517072E-2,5.9772115E-2,-5.1556785E-2,-4.7281096E-3,-1.5777612E-2,2.1458216E-2,-5.891902E-3,3.8808115E-2,2.9273842E-2,7.809185E-2,-1.2373409E-3,4.1050114E-2,3.591337E-2,7.371519E-2,7.7073134E-2,1.1535078E-1,1.19416915E-1,1.6692701E-1,-8.31273E-3,-6.396815E-3,-5.9531466E-3,-4.212831E-3,-5.1521505E-3,-3.0378378E-3,-3.4366641E-3,-1.805909E-3,-4.985932E-3,-3.335613E-3,-1.9606978E-3,7.8534934E-4,-3.4583968E-3,-1.6422125E-3,-9.900689E-4,9.08681E-4,-3.815762E-3,-2.107354E-3,-2.0672344E-3,-3.1010757E-4,-2.9625595E-3,-8.1731955E-4,-7.8827684E-4,1.1041076E-3,-1.9658608E-3,-1.2868499E-6,-3.6507376E-4,1.6911499E-3,1.8588307E-4,2.2598614E-3,2.2241145E-3,4.1016447E-3,-3.4106474E-3,-1.6685991E-3,-1.3907801E-3,8.6343376E-4,-1.9577052E-3,-1.3039795E-4,2.9292944E-4,2.1453772E-3,-1.966112E-3,7.580033E-5,1.0002075E-3,2.8793793E-3,6.843411E-4,2.3640057E-3,2.700305E-3,4.468217E-3,-7.7543844E-4,6.840742E-4,1.1279433E-3,3.2955804E-3,1.1202882E-3,2.735175E-3,2.7761331E-3,4.323931E-3,2.6685619E-3,4.9300944E-3,4.9413336E-3,6.7685195E-3,4.737391E-3,6.4996965E-3,7.6755593E-3,9.62942E-3],"categories":[],"categories_nodes":[],"categories_segments":[],"categories_sizes":[],"default_left":[0,0,0,0,0,0,0,0,0,0,0,0,0,0,0,0,0,0,0,0,0,0,0,0,0,0,0,0,0,0,0,0,0,0,0,0,0,0,0,0,0,0,0,0,0,0,0,0,0,0,0,0,0,0,0,0,0,0,0,0,0,0,0,0,0,0,0,0,0,0,0,0,0,0,0,0,0,0,0,0,0,0,0,0,0,0,0,0,0,0,0,0,0,0,0,0,0,0,0,0,0,0,0,0,0,0,0,0,0,0,0,0,0,0,0,0,0,0,0,0,0,0,0,0,0,0,0],"id":5,"left_children":[1,3,5,7,9,11,13,15,17,19,21,23,25,27,29,31,33,35,37,39,41,43,45,47,49,51,53,55,57,59,61,63,65,67,69,71,73,75,77,79,81,83,85,87,89,91,93,95,97,99,101,103,105,107,109,111,113,115,117,119,121,123,125,-1,-1,-1,-1,-1,-1,-1,-1,-1,-1,-1,-1,-1,-1,-1,-1,-1,-1,-1,-1,-1,-1,-1,-1,-1,-1,-1,-1,-1,-1,-1,-1,-1,-1,-1,-1,-1,-1,-1,-1,-1,-1,-1,-1,-1,-1,-1,-1,-1,-1,-1,-1,-1,-1,-1,-1,-1,-1,-1,-1,-1,-1,-1,-1],"loss_changes":[7.515403E0,3.1337802E0,3.0380306E0,1.1145515E0,9.1586393E-1,1.0419285E0,1.1585865E0,2.9055548E-1,2.1421403E-1,1.427089E-1,1.716694E-1,2.4041627E-1,2.2368234E-1,1.8347657E-1,2.4537611E-1,1.5039396E-1,6.2080503E-2,8.191186E-2,1.1940007E-1,7.617909E-2,4.2393535E-2,8.7329134E-2,9.890205E-2,1.193842E-1,1.0974658E-1,9.276998E-2,1.172812E-1,8.362979E-2,6.678212E-2,1.14145756E-1,1.0331869E-1,5.3417683E-2,4.504621E-2,2.1808326E-2,2.18212E-2,3.2744586E-2,1.508151E-2,3.1629026E-2,5.2036654E-2,3.923887E-2,2.3854598E-2,1.934275E-2,2.8617691E-2,3.7869178E-2,5.0676703E-2,4.0405106E-2,5.2510977E-2,6.617653E-2,3.755343E-2,6.146995E-2,4.3581426E-2,2.1852715E-2,3.380774E-2,1.9560706E-2,4.2415977E-2,2.0013085E-2,4.218653E-2,1.6794823E-2,3.30469E-2,8.352482E-2,4.0543318E-2,2.1864533E-2,2.452612E-3,0E0,0E0,0E0,0E0,0E0,0E0,0E0,0E0,0E0,0E0,0E0,0E0,0E0,0E0,0E0,0E0,0E0,0E0,0E0,0E0,0E0,0E0,0E0,0E0,0E0,0E0,0E0,0E0,0E0,0E0,0E0,0E0,0E0,0E0,0E0,0E0,0E0,0E0,0E0,0E0,0E0,0E0,0E0,0E0,0E0,0E0,0E0,0E0,0E0,0E0,0E0,0E0,0E0,0E0,0E0,0E0,0E0,0E0,0E0,0E0,0E0,0E0,0E0,0E0],"parents":[2147483647,0,0,1,1,2,2,3,3,4,4,5,5,6,6,7,7,8,8,9,9,10,10,11,11,12,12,13,13,14,14,15,15,16,16,17,17,18,18,19,19,20,20,21,21,22,22,23,23,24,24,25,25,26,26,27,27,28,28,29,29,30,30,31,31,32,32,33,33,34,34,35,35,36,36,37,37,38,38,39,39,40,40,41,41,42,42,43,43,44,44,45,45,46,46,47,47,48,48,49,49,50,50,51,51,52,52,53,53,54,54,55,55,56,56,57,57,58,58,59,59,60,60,61,61,62,62],"right_children":[2,4,6,8,10,12,14,16,18,20,22,24,26,28,30,32,34,36,38,40,42,44,46,48,50,52,54,56,58,60,62,64,66,68,70,72,74,76,78,80,82,84,86,88,90,92,94,96,98,100,102,104,106,108,110,112,114,116,118,120,122,124,126,-1,-1,-1,-1,-1,-1,-1,-1,-1,-1,-1,-1,-1,-1,-1,-1,-1,-1,-1,-1,-1,-1,-1,-1,-1,-1,-1,-1,-1,-1,-1,-1,-1,-1,-1,-1,-1,-1,-1,-1,-1,-1,-1,-1,-1,-1,-1,-1,-1,-1,-1,-1,-1,-1,-1,-1,-1,-1,-1,-1,-1,-1,-1,-1],"split_conditions":[5.4868E1,6.5755E1,6.5611E1,1.3073E1,1.1392E1,1.3912E1,1.1392E1,5.1741E1,5.9413E1,5.1205E1,7.0316E1,9.381E0,5.906E1,5.906E1,6.1158E1,9.436E0,6.1244E1,5.2205E1,4.9101E1,1.06658E2,6.9046E1,4.9824E1,4.9101E1,6.2746E1,6.1312E1,6.0479E1,5.8414E1,6.9947E1,6.8531E1,7.0392E1,7.1451E1,5.873E1,6.0546E1,1.1333E1,1.03107E2,6.1419E1,1.9637E1,8.2137E1,1.06658E2,7.217E1,7.1594E1,6.03E1,8.097E0,1.3967E1,3.5727E1,1.03402E2,1.6344E1,7.5358E1,6.3651E1,5.8925E1,6.0858E1,1.9699E1,9.0197E1,1.7156E1,5.8946E1,4.5E-1,9.0197E1,9.501E0,7.36E0,1.5894E1,9.3159E1,4.7515E1,6.38E1,-8.31273E-3,-6.396815E-3,-5.9531466E-3,-4.212831E-3,-5.1521505E-3,-3.0378378E-3,-3.4366641E-3,-1.805909E-3,-4.985932E-3,-3.335613E-3,-1.9606978E-3,7.8534934E-4,-3.4583968E-3,-1.6422125E-3,-9.900689E-4,9.08681E-4,-3.815762E-3,-2.107354E-3,-2.0672344E-3,-3.1010757E-4,-2.9625595E-3,-8.1731955E-4,-7.8827684E-4,1.1041076E-3,-1.9658608E-3,-1.2868499E-6,-3.6507376E-4,1.6911499E-3,1.8588307E-4,2.2598614E-3,2.2241145E-3,4.1016447E-3,-3.4106474E-3,-1.6685991E-3,-1.3907801E-3,8.6343376E-4,-1.9577052E-3,-1.3039795E-4,2.9292944E-4,2.1453772E-3,-1.966112E-3,7.580033E-5,1.0002075E-3,2.8793793E-3,6.843411E-4,2.3640057E-3,2.700305E-3,4.468217E-3,-7.7543844E-4,6.840742E-4,1.1279433E-3,3.2955804E-3,1.1202882E-3,2.735175E-3,2.7761331E-3,4.323931E-3,2.6685619E-3,4.9300944E-3,4.9413336E-3,6.7685195E-3,4.737391E-3,6.4996965E-3,7.6755593E-3,9.62942E-3],"split_indices":[0,1,1,5,5,5,5,0,1,0,1,5,0,0,0,5,1,0,0,3,1,0,0,0,1,1,1,1,1,1,1,1,1,5,3,3,5,3,3,1,1,3,5,5,3,3,5,3,3,0,0,3,3,5,3,8,3,5,5,5,3,3,0,0,0,0,0,0,0,0,0,0,0,0,0,0,0,0,0,0,0,0,0,0,0,0,0,0,0,0,0,0,0,0,0,0,0,0,0,0,0,0,0,0,0,0,0,0,0,0,0,0,0,0,0,0,0,0,0,0,0,0,0,0,0,0,0],"split_type":[0,0,0,0,0,0,0,0,0,0,0,0,0,0,0,0,0,0,0,0,0,0,0,0,0,0,0,0,0,0,0,0,0,0,0,0,0,0,0,0,0,0,0,0,0,0,0,0,0,0,0,0,0,0,0,0,0,0,0,0,0,0,0,0,0,0,0,0,0,0,0,0,0,0,0,0,0,0,0,0,0,0,0,0,0,0,0,0,0,0,0,0,0,0,0,0,0,0,0,0,0,0,0,0,0,0,0,0,0,0,0,0,0,0,0,0,0,0,0,0,0,0,0,0,0,0,0],"sum_hessian":[4.016E3,1.986E3,2.03E3,1.081E3,9.05E2,1.055E3,9.75E2,6E2,4.81E2,3.63E2,5.42E2,6.26E2,4.29E2,4.18E2,5.57E2,3.99E2,2.01E2,2.06E2,2.75E2,2.41E2,1.22E2,2.79E2,2.63E2,2.97E2,3.29E2,1.85E2,2.44E2,1.86E2,2.32E2,3.35E2,2.22E2,2.18E2,1.81E2,9.8E1,1.03E2,1.5E2,5.6E1,1.02E2,1.73E2,1.62E2,7.9E1,4.4E1,7.8E1,1.16E2,1.63E2,9.9E1,1.64E2,2.25E2,7.2E1,1.99E2,1.3E2,8.7E1,9.8E1,7.1E1,1.73E2,9.2E1,9.4E1,7E1,1.62E2,1.73E2,1.62E2,1.3E2,9.2E1,7.6E1,1.42E2,8.5E1,9.6E1,7.7E1,2.1E1,6.8E1,3.5E1,5.7E1,9.3E1,5.1E1,5E0,5.2E1,5E1,1.23E2,5E1,1.06E2,5.6E1,4.5E1,3.4E1,1.8E1,2.6E1,3.8E1,4E1,3.4E1,8.2E1,3.9E1,1.24E2,6.2E1,3.7E1,9.9E1,6.5E1,1.16E2,1.09E2,3.5E1,3.7E1,7.1E1,1.28E2,7.6E1,5.4E1,1.5E1,7.2E1,5E1,4.8E1,3.9E1,3.2E1,5.7E1,1.16E2,4.7E1,4.5E1,5.5E1,3.9E1,4.2E1,2.8E1,6.9E1,9.3E1,8.4E1,8.9E1,9.2E1,7E1,4.2E1,8.8E1,6.5E1,2.7E1],"tree_param":{"num_deleted":"0","num_feature":"11","num_nodes":"127","size_leaf_vector":"1"}},{"base_weights":[-3.1515668E-4,-6.298131E-2,5.661601E-2,-1.1203293E-1,-3.900242E-2,2.8452378E-2,1.0253693E-1,-1.4986993E-1,-9.735444E-2,-5.618142E-2,-2.1046368E-2,1.0093552E-2,4.2962965E-2,8.208399E-2,1.336402E-1,-8.773259E-3,-6.956653E-3,-1.0894358E-1,-8.4355354E-2,-6.638008E-2,-4.225883E-2,-1.191193E-2,-3.2479122E-2,-2.6472383E-3,1.8278608E-2,3.7954286E-2,6.0777985E-2,7.4090466E-2,9.5886976E-2,1.1813263E-1,8.078989E-3,-1.18036196E-1,-9.9997796E-2,-7.57202E-2,-4.9536126E-3,-7.753087E-2,-5.6076694E-2,-5.448755E-2,-3.4521814E-2,-2.402991E-2,-5.0423867E-3,-4.3265574E-2,-2.6140645E-2,5.5983816E-3,-1.3785606E-2,2.8809112E-2,1.249213E-2,2.4452742E-2,4.367421E-2,5.3251732E-2,3.916331E-3,8.455959E-2,6.2280938E-2,5.0625145E-3,7.26641E-2,9.80414E-2,6.1354013E-3,-5.034709E-3,-6.250889E-3,-2.9324936E-3,-5.0794855E-3,-4.548865E-3,-3.3561904E-3,-2.136498E-3,-3.9679445E-3,-2.2970675E-3,-3.213356E-3,-2.2088327E-3,-3.112952E-3,-1.4689204E-3,-2.2236845E-3,-5.8979145E-5,-1.3671436E-3,-5.301763E-4,4.0736E-4,-2.6471314E-3,-1.6564341E-3,-1.0498242E-3,-1.8889944E-3,-1.698018E-4,7.185848E-4,-9.98738E-4,1.8228791E-4,7.2828494E-4,1.8007382E-3,1.6900069E-4,9.338415E-4,6.840616E-4,1.4720991E-3,2.6663474E-3,1.8829874E-3,1.9654704E-3,2.9021613E-3,3.3382864E-3,4.448622E-3,2.765246E-3,3.790373E-3,3.7337241E-3,1.282919E-3,6.052482E-3,4.3174764E-3],"categories":[],"categories_nodes":[],"categories_segments":[],"categories_sizes":[],"default_left":[0,0,0,0,0,0,0,0,0,0,0,0,0,0,0,0,0,0,0,0,0,0,0,0,0,0,0,0,0,0,0,0,0,0,0,0,0,0,0,0,0,0,0,0,0,0,0,0,0,0,0,0,0,0,0,0,0,0,0,0,0,0,0,0,0,0,0,0,0,0,0,0,0,0,0,0,0,0,0,0,0,0,0,0,0,0,0,0,0,0,0,0,0,0,0,0,0,0,0,0,0],"id":6,"left_children":[1,3,5,7,9,11,13,15,17,19,21,23,25,27,29,-1,-1,31,33,35,37,39,41,43,45,47,49,51,53,55,-1,57,59,61,-1,63,65,67,69,71,73,75,77,79,81,83,85,87,89,91,-1,93,95,-1,97,99,-1,-1,-1,-1,-1,-1,-1,-1,-1,-1,-1,-1,-1,-1,-1,-1,-1,-1,-1,-1,-1,-1,-1,-1,-1,-1,-1,-1,-1,-1,-1,-1,-1,-1,-1,-1,-1,-1,-1,-1,-1,-1,-1,-1,-1],"loss_changes":[1.4209977E1,2.2257123E0,2.696199E0,3.3086157E-1,3.9211297E-1,3.4455097E-1,4.9349976E-1,2.2854805E-2,5.8752537E-2,8.963156E-2,6.488299E-2,5.9803173E-2,6.220627E-2,4.5966625E-2,1.1652756E-1,0E0,0E0,7.3115826E-3,2.0075083E-2,3.8621545E-2,2.4421662E-2,2.8931335E-2,1.7807394E-2,2.0741796E-2,2.090627E-2,4.272026E-2,1.6564846E-2,3.293681E-2,1.4190197E-2,6.8142414E-3,0E0,8.507967E-4,2.2695065E-3,1.2386203E-2,0E0,7.869124E-3,1.3484061E-2,5.743474E-3,7.5487047E-3,9.506226E-3,1.6516592E-2,8.153677E-3,9.804472E-3,1.0307219E-2,1.0429818E-2,1.2099281E-2,1.2729622E-2,8.787014E-3,2.1039903E-2,5.2672625E-3,0E0,6.701708E-3,9.867251E-3,0E0,1.4859438E-3,1.1148155E-3,0E0,0E0,0E0,0E0,0E0,0E0,0E0,0E0,0E0,0E0,0E0,0E0,0E0,0E0,0E0,0E0,0E0,0E0,0E0,0E0,0E0,0E0,0E0,0E0,0E0,0E0,0E0,0E0,0E0,0E0,0E0,0E0,0E0,0E0,0E0,0E0,0E0,0E0,0E0,0E0,0E0,0E0,0E0,0E0,0E0],"parents":[2147483647,0,0,1,1,2,2,3,3,4,4,5,5,6,6,7,7,8,8,9,9,10,10,11,11,12,12,13,13,14,14,17,17,18,18,19,19,20,20,21,21,22,22,23,23,24,24,25,25,26,26,27,27,28,28,29,29,31,31,32,32,33,33,35,35,36,36,37,37,38,38,39,39,40,40,41,41,42,42,43,43,44,44,45,45,46,46,47,47,48,48,49,49,51,51,52,52,54,54,55,55],"right_children":[2,4,6,8,10,12,14,16,18,20,22,24,26,28,30,-1,-1,32,34,36,38,40,42,44,46,48,50,52,54,56,-1,58,60,62,-1,64,66,68,70,72,74,76,78,80,82,84,86,88,90,92,-1,94,96,-1,98,100,-1,-1,-1,-1,-1,-1,-1,-1,-1,-1,-1,-1,-1,-1,-1,-1,-1,-1,-1,-1,-1,-1,-1,-1,-1,-1,-1,-1,-1,-1,-1,-1,-1,-1,-1,-1,-1,-1,-1,-1,-1,-1,-1,-1,-1],"split_conditions":[4.7333032E-1,3.4936118E-1,5.92811E-1,2.66095E-1,4.18716E-1,5.235275E-1,6.59258E-1,2.17658E-1,3.1648883E-1,8.2636E1,6.2935E1,6.7471E1,5.7616633E-1,6.303047E-1,7.1960133E-1,-8.773259E-3,-6.956653E-3,6.4174E1,6.819E1,3.8512233E-1,3.8154733E-1,5.8024E1,4.376235E-1,6.8598E1,5.3082E1,4.8633E1,1.07685E2,6.7537E1,8.3578E1,4.7515E1,8.078989E-3,4.1121E1,3.2052E1,5.8946E1,-4.9536126E-3,3.3583E1,5.6537E1,5.3082E1,6.802E1,4.8957E1,4.5712733E-1,5.9757E1,5.5492E1,4.9761218E-1,5.09063E-1,4.8849416E-1,4.9497834E-1,5.4394966E-1,5.8375E1,2.9888E1,3.916331E-3,4.6901E1,1.03107E2,5.0625145E-3,9.4513E1,5.3704E1,6.1354013E-3,-5.034709E-3,-6.250889E-3,-2.9324936E-3,-5.0794855E-3,-4.548865E-3,-3.3561904E-3,-2.136498E-3,-3.9679445E-3,-2.2970675E-3,-3.213356E-3,-2.2088327E-3,-3.112952E-3,-1.4689204E-3,-2.2236845E-3,-5.8979145E-5,-1.3671436E-3,-5.301763E-4,4.0736E-4,-2.6471314E-3,-1.6564341E-3,-1.0498242E-3,-1.8889944E-3,-1.698018E-4,7.185848E-4,-9.98738E-4,1.8228791E-4,7.2828494E-4,1.8007382E-3,1.6900069E-4,9.338415E-4,6.840616E-4,1.4720991E-3,2.6663474E-3,1.8829874E-3,1.9654704E-3,2.9021613E-3,3.3382864E-3,4.448622E-3,2.765246E-3,3.790373E-3,3.7337241E-3,1.282919E-3,6.052482E-3,4.3174764E-3],"split_indices":[10,10,10,10,10,10,10,10,10,3,2,3,10,10,10,0,0,3,2,10,10,3,10,2,2,3,3,2,2,3,0,2,2,3,0,2,2,2,2,0,10,3,0,10,10,10,10,10,2,3,0,3,3,0,2,2,0,0,0,0,0,0,0,0,0,0,0,0,0,0,0,0,0,0,0,0,0,0,0,0,0,0,0,0,0,0,0,0,0,0,0,0,0,0,0,0,0,0,0,0,0],"split_type":[0,0,0,0,0,0,0,0,0,0,0,0,0,0,0,0,0,0,0,0,0,0,0,0,0,0,0,0,0,0,0,0,0,0,0,0,0,0,0,0,0,0,0,0,0,0,0,0,0,0,0,0,0,0,0,0,0,0,0,0,0,0,0,0,0,0,0,0,0,0,0,0,0,0,0,0,0,0,0,0,0,0,0,0,0,0,0,0,0,0,0,0,0,0,0,0,0,0,0,0,0],"sum_hessian":[3.981E3,1.895E3,2.086E3,6.21E2,1.274E3,1.294E3,7.92E2,1.71E2,4.5E2,6.5E2,6.24E2,5.72E2,7.22E2,4.8E2,3.12E2,4.6E1,1.25E2,2.34E2,2.16E2,3.73E2,2.77E2,3.48E2,2.76E2,2.24E2,3.48E2,5.66E2,1.56E2,3.08E2,1.72E2,2.04E2,1.08E2,1.1E2,1.24E2,1.4E2,7.6E1,1.76E2,1.97E2,1.05E2,1.72E2,1.25E2,2.23E2,1E2,1.76E2,1.29E2,9.5E1,1.22E2,2.26E2,1.7E2,3.96E2,1.12E2,4.4E1,1.6E2,1.48E2,1.37E2,3.5E1,4.2E1,1.62E2,3.6E1,7.4E1,6E0,1.18E2,4.7E1,9.3E1,1E1,1.66E2,9.1E1,1.06E2,4.8E1,5.7E1,1.16E2,5.6E1,1.6E1,1.09E2,1.57E2,6.6E1,4.9E1,5.1E1,1.24E2,5.2E1,6.4E1,6.5E1,7E1,2.5E1,4.2E1,8E1,9.2E1,1.34E2,5.5E1,1.15E2,1.49E2,2.47E2,3.1E1,8.1E1,3.5E1,1.25E2,1.01E2,4.7E1,3.3E1,2E0,1.1E1,3.1E1],"tree_param":{"num_deleted":"0","num_feature":"11","num_nodes":"101","size_leaf_vector":"1"}},{"base_weights":[1.114609E-4,-5.9726212E-2,5.3976692E-2,-1.067788E-1,-3.7181E-2,2.719636E-2,9.7948395E-2,-1.5064313E-1,-9.579632E-2,-5.3847432E-2,-2.011482E-2,1.2703799E-2,4.3782588E-2,7.812063E-2,1.2571087E-1,-8.472483E-3,-6.8847947E-3,-1.094901E-1,-8.408075E-2,-6.409383E-2,-4.0321633E-2,-3.241357E-2,-1.1103464E-2,-2.8572427E-3,2.0473776E-2,3.365263E-2,5.3350132E-2,6.463095E-2,8.6741045E-2,1.11905895E-1,1.5382797E-1,-5.687594E-3,-8.487646E-2,-9.172748E-2,-6.878765E-2,-7.460658E-2,-5.2997854E-2,-4.751488E-2,-2.8468914E-2,-4.529702E-2,-2.4475219E-2,-2.0486597E-2,-2.0106428E-3,-2.9171465E-2,1.1079856E-5,1.164879E-2,3.0244356E-2,1.9336166E-2,3.924872E-2,4.3509983E-2,6.497535E-2,4.571324E-2,7.182588E-2,9.452593E-2,7.332349E-2,9.3046E-2,1.1676274E-1,7.2509698E-3,9.326466E-3,-4.29878E-3,-1.1326916E-3,-4.9009486E-3,-4.0477E-3,-3.986462E-3,-3.014323E-3,-4.061168E-3,-3.150096E-3,-3.1266683E-3,-2.2185897E-3,-2.9679367E-3,-1.9183381E-3,-8.0249656E-4,-1.744482E-3,-2.5385544E-3,-1.3776857E-3,-1.4986686E-3,-5.81685E-4,-1.4061694E-3,-6.396572E-4,1.7726324E-4,-6.0486805E-4,-1.0680855E-4,-1.5822267E-3,-2.1886754E-4,7.5480394E-4,1.377968E-4,1.1084954E-3,8.0682494E-4,1.827121E-3,6.1895064E-4,1.4327507E-3,1.44789E-3,2.3687796E-3,2.6585553E-3,1.8419437E-3,2.9056594E-3,3.7477443E-3,1.3694782E-3,2.462761E-3,3.1845376E-3,3.992697E-3,4.058206E-3,5.164654E-3,3.7147407E-3,1.92276E-3,5.2210838E-3,3.9045822E-3,4.9858596E-3,6.0948036E-3],"categories":[],"categories_nodes":[],"categories_segments":[],"categories_sizes":[],"default_left":[0,0,0,0,0,0,0,0,0,0,0,0,0,0,0,0,0,0,0,0,0,0,0,0,0,0,0,0,0,0,0,0,0,0,0,0,0,0,0,0,0,0,0,0,0,0,0,0,0,0,0,0,0,0,0,0,0,0,0,0,0,0,0,0,0,0,0,0,0,0,0,0,0,0,0,0,0,0,0,0,0,0,0,0,0,0,0,0,0,0,0,0,0,0,0,0,0,0,0,0,0,0,0,0,0,0,0,0,0],"id":7,"left_children":[1,3,5,7,9,11,13,15,17,19,21,23,25,27,29,-1,-1,31,33,35,37,39,41,43,45,47,49,51,53,55,57,-1,59,61,63,65,67,69,71,73,75,77,79,81,83,85,87,89,91,93,95,97,99,101,103,105,107,-1,-1,-1,-1,-1,-1,-1,-1,-1,-1,-1,-1,-1,-1,-1,-1,-1,-1,-1,-1,-1,-1,-1,-1,-1,-1,-1,-1,-1,-1,-1,-1,-1,-1,-1,-1,-1,-1,-1,-1,-1,-1,-1,-1,-1,-1,-1,-1,-1,-1,-1,-1],"loss_changes":[1.2886234E1,2.0052047E0,2.4749575E0,2.808752E-1,3.63559E-1,3.1409717E-1,4.2835188E-1,6.12998E-3,6.988573E-2,8.722246E-2,7.0016146E-2,8.469479E-2,5.7325125E-2,4.8699856E-2,1.10877514E-1,0E0,0E0,1.3842583E-2,2.526462E-2,3.8856268E-2,2.2690505E-2,2.630058E-2,3.135626E-2,1.7662099E-2,3.991486E-2,2.3195833E-2,3.2863855E-2,2.2033393E-2,2.2524834E-2,9.745598E-3,3.4832954E-3,0E0,5.827844E-4,4.0621758E-3,3.9369464E-3,9.164929E-3,1.2195528E-2,1.6575307E-2,8.131564E-3,8.411005E-3,1.1512876E-2,1.0274559E-2,1.0578573E-2,1.4701858E-3,1.4100369E-2,2.3048908E-2,1.904668E-2,5.2208863E-3,1.6525567E-2,9.126693E-3,5.299926E-3,2.1556318E-3,3.6002398E-3,1.211679E-2,8.007884E-4,5.2145123E-4,3.1573772E-3,0E0,0E0,0E0,0E0,0E0,0E0,0E0,0E0,0E0,0E0,0E0,0E0,0E0,0E0,0E0,0E0,0E0,0E0,0E0,0E0,0E0,0E0,0E0,0E0,0E0,0E0,0E0,0E0,0E0,0E0,0E0,0E0,0E0,0E0,0E0,0E0,0E0,0E0,0E0,0E0,0E0,0E0,0E0,0E0,0E0,0E0,0E0,0E0,0E0,0E0,0E0,0E0],"parents":[2147483647,0,0,1,1,2,2,3,3,4,4,5,5,6,6,7,7,8,8,9,9,10,10,11,11,12,12,13,13,14,14,17,17,18,18,19,19,20,20,21,21,22,22,23,23,24,24,25,25,26,26,27,27,28,28,29,29,30,30,32,32,33,33,34,34,35,35,36,36,37,37,38,38,39,39,40,40,41,41,42,42,43,43,44,44,45,45,46,46,47,47,48,48,49,49,50,50,51,51,52,52,53,53,54,54,55,55,56,56],"right_children":[2,4,6,8,10,12,14,16,18,20,22,24,26,28,30,-1,-1,32,34,36,38,40,42,44,46,48,50,52,54,56,58,-1,60,62,64,66,68,70,72,74,76,78,80,82,84,86,88,90,92,94,96,98,100,102,104,106,108,-1,-1,-1,-1,-1,-1,-1,-1,-1,-1,-1,-1,-1,-1,-1,-1,-1,-1,-1,-1,-1,-1,-1,-1,-1,-1,-1,-1,-1,-1,-1,-1,-1,-1,-1,-1,-1,-1,-1,-1,-1,-1,-1,-1,-1,-1,-1,-1,-1,-1,-1,-1],"split_conditions":[4.7403467E-1,3.467255E-1,5.92811E-1,2.515125E-1,4.18716E-1,5.343508E-1,6.59258E-1,2.17658E-1,3.0630165E-1,1.2009E1,1.0798E1,1.0909E1,1.381E1,1.3073E1,7.1960133E-1,-8.472483E-3,-6.8847947E-3,1.4444E1,1.2128E1,7.3934E1,8.8113E1,5.8024E1,7.1428E1,1.2896E1,8.7065E1,4.8633E1,8.3839E1,5.0759E1,7.362E1,4.8904E1,7.921565E-1,-5.687594E-3,6.1854E1,9.7143E1,6.2481E1,3.9284134E-1,3.8154733E-1,3.8320133E-1,5.291E1,4.586925E-1,4.5712733E-1,4.4639E-1,6.2329E1,4.6146E1,5.173387E-1,5.09063E-1,4.9201E-1,5.64319E-1,5.6097066E-1,6.135E1,5.6979716E-1,6.395E0,6.189795E-1,6.2120414E-1,1.6564E1,8.0581E1,1.2391E1,7.2509698E-3,9.326466E-3,-4.29878E-3,-1.1326916E-3,-4.9009486E-3,-4.0477E-3,-3.986462E-3,-3.014323E-3,-4.061168E-3,-3.150096E-3,-3.1266683E-3,-2.2185897E-3,-2.9679367E-3,-1.9183381E-3,-8.0249656E-4,-1.744482E-3,-2.5385544E-3,-1.3776857E-3,-1.4986686E-3,-5.81685E-4,-1.4061694E-3,-6.396572E-4,1.7726324E-4,-6.0486805E-4,-1.0680855E-4,-1.5822267E-3,-2.1886754E-4,7.5480394E-4,1.377968E-4,1.1084954E-3,8.0682494E-4,1.827121E-3,6.1895064E-4,1.4327507E-3,1.44789E-3,2.3687796E-3,2.6585553E-3,1.8419437E-3,2.9056594E-3,3.7477443E-3,1.3694782E-3,2.462761E-3,3.1845376E-3,3.992697E-3,4.058206E-3,5.164654E-3,3.7147407E-3,1.92276E-3,5.2210838E-3,3.9045822E-3,4.9858596E-3,6.0948036E-3],"split_indices":[10,10,10,10,10,10,10,10,10,5,5,5,5,5,10,0,0,5,5,3,3,3,3,3,3,3,3,3,2,3,10,0,1,3,3,10,10,10,2,10,10,10,2,2,10,10,10,10,10,2,10,5,10,10,7,2,5,0,0,0,0,0,0,0,0,0,0,0,0,0,0,0,0,0,0,0,0,0,0,0,0,0,0,0,0,0,0,0,0,0,0,0,0,0,0,0,0,0,0,0,0,0,0,0,0,0,0,0,0],"split_type":[0,0,0,0,0,0,0,0,0,0,0,0,0,0,0,0,0,0,0,0,0,0,0,0,0,0,0,0,0,0,0,0,0,0,0,0,0,0,0,0,0,0,0,0,0,0,0,0,0,0,0,0,0,0,0,0,0,0,0,0,0,0,0,0,0,0,0,0,0,0,0,0,0,0,0,0,0,0,0,0,0,0,0,0,0,0,0,0,0,0,0,0,0,0,0,0,0,0,0,0,0,0,0,0,0,0,0,0,0],"sum_hessian":[3.996E3,1.893E3,2.103E3,6.12E2,1.281E3,1.308E3,7.95E2,1.2E2,4.92E2,6.47E2,6.34E2,6.99E2,6.09E2,4.66E2,3.29E2,4.4E1,7.6E1,2.23E2,2.69E2,3.66E2,2.81E2,2.67E2,3.67E2,2.33E2,4.66E2,2.98E2,3.11E2,1.85E2,2.81E2,2.24E2,1.05E2,1.87E2,3.6E1,1.76E2,9.3E1,1.85E2,1.81E2,1.73E2,1.08E2,1E2,1.67E2,1.8E2,1.87E2,2.2E1,2.11E2,2.46E2,2.2E2,8.5E1,2.13E2,1.71E2,1.4E2,5.3E1,1.32E2,1.74E2,1.07E2,5E1,1.74E2,8.7E1,1.8E1,3.5E1,1E0,1.06E2,7E1,3.7E1,5.6E1,1.14E2,7.1E1,8.3E1,9.8E1,7.3E1,1E2,3.8E1,7E1,7.5E1,2.5E1,1.16E2,5.1E1,8.9E1,9.1E1,1.21E2,6.6E1,2E0,2E1,1.64E2,4.7E1,1.34E2,1.12E2,6.9E1,1.51E2,5E1,3.5E1,9.6E1,1.17E2,6.7E1,1.04E2,8.7E1,5.3E1,1E1,4.3E1,7E1,6.2E1,7.3E1,1.01E2,1.03E2,4E0,2.5E1,2.5E1,4.5E1,1.29E2],"tree_param":{"num_deleted":"0","num_feature":"11","num_nodes":"109","size_leaf_vector":"1"}},{"base_weights":[-3.023667E-4,-5.7167556E-2,5.193628E-2,-1.0225055E-1,-3.5339538E-2,2.3373887E-2,9.111522E-2,-1.4559853E-1,-9.053891E-2,-4.8677024E-2,-1.7277772E-2,1.0040476E-2,3.7825916E-2,7.440865E-2,1.247867E-1,-7.709577E-3,-6.088251E-3,-1.0227525E-1,-7.556908E-2,-5.8297705E-2,-3.603347E-2,-2.893853E-2,-7.923604E-3,-2.0545647E-3,1.8098675E-2,2.4285857E-2,4.4244874E-2,6.3935645E-2,8.5762836E-2,1.1178974E-1,7.541758E-3,-5.3780903E-3,-8.503006E-2,-6.902283E-2,-4.578027E-3,-6.971414E-2,-5.0444156E-2,-4.941023E-2,-2.960225E-2,-1.4067573E-2,-3.3819884E-2,-5.627082E-4,-1.6680144E-2,8.991491E-3,-8.738395E-3,1.0608024E-2,2.5266029E-2,3.5299722E-2,1.7018113E-2,5.276802E-2,3.769584E-2,7.1770325E-2,5.461023E-2,9.462029E-2,7.250049E-2,4.609462E-3,1.1672713E-1,-4.316041E-3,-1.3714716E-3,-3.9280504E-3,-3.0000478E-3,-3.117289E-3,-3.8658162E-3,-2.1878066E-3,-2.997699E-3,-2.0061112E-3,-2.8410386E-3,-1.2012807E-3,-2.1155651E-3,-3.519291E-4,-1.2598204E-3,-1.9493357E-3,-1.1159882E-3,-3.1983302E-4,4.5998613E-4,-1.2205059E-3,-5.2787235E-4,-3.2158198E-6,9.118651E-4,-8.498189E-4,-1.145037E-4,7.246308E-4,-8.915229E-5,1.9803566E-3,9.6745585E-4,1.2513846E-3,2.2866272E-3,3.4888787E-4,1.0049238E-3,2.0766272E-3,2.941673E-3,2.055041E-3,1.4793816E-3,3.606818E-3,2.660878E-4,2.1925492E-3,3.2113108E-3,3.7494737E-3,5.0516515E-3,2.8893703E-3,3.842982E-3,5.945492E-3,4.0312693E-3],"categories":[],"categories_nodes":[],"categories_segments":[],"categories_sizes":[],"default_left":[0,0,0,0,0,0,0,0,0,0,0,0,0,0,0,0,0,0,0,0,0,0,0,0,0,0,0,0,0,0,0,0,0,0,0,0,0,0,0,0,0,0,0,0,0,0,0,0,0,0,0,0,0,0,0,0,0,0,0,0,0,0,0,0,0,0,0,0,0,0,0,0,0,0,0,0,0,0,0,0,0,0,0,0,0,0,0,0,0,0,0,0,0,0,0,0,0,0,0,0,0,0,0],"id":8,"left_children":[1,3,5,7,9,11,13,15,17,19,21,23,25,27,29,-1,-1,31,33,35,37,39,41,43,45,47,49,51,53,55,-1,-1,57,59,-1,61,63,65,67,69,71,73,75,77,79,81,83,85,87,89,91,93,95,97,99,-1,101,-1,-1,-1,-1,-1,-1,-1,-1,-1,-1,-1,-1,-1,-1,-1,-1,-1,-1,-1,-1,-1,-1,-1,-1,-1,-1,-1,-1,-1,-1,-1,-1,-1,-1,-1,-1,-1,-1,-1,-1,-1,-1,-1,-1,-1,-1],"loss_changes":[1.2048593E1,1.9074559E0,2.3635306E0,3.0817652E-1,3.1473613E-1,2.3547876E-1,4.9193335E-1,8.463621E-3,8.02927E-2,8.949375E-2,6.0635477E-2,6.221936E-2,4.9943447E-2,6.562638E-2,8.267212E-2,0E0,0E0,1.6198397E-2,1.7129421E-2,3.467822E-2,2.6754856E-2,1.7526671E-2,2.003642E-2,1.8979043E-2,2.0294532E-2,1.4688045E-2,2.0170748E-2,1.9095063E-2,2.6501656E-2,8.594036E-3,0E0,0E0,2.8367043E-3,9.3128085E-3,0E0,4.7584176E-3,1.3658762E-2,4.947275E-3,1.485917E-2,4.7507966E-3,1.0181785E-2,9.740952E-3,6.462913E-3,8.122816E-3,8.481098E-3,9.123212E-3,1.5780367E-2,6.8928823E-3,3.4783296E-3,9.141684E-3,5.0786436E-3,3.7022233E-3,1.2495786E-2,1.3446808E-2,3.1266212E-3,0E0,2.7053356E-3,0E0,0E0,0E0,0E0,0E0,0E0,0E0,0E0,0E0,0E0,0E0,0E0,0E0,0E0,0E0,0E0,0E0,0E0,0E0,0E0,0E0,0E0,0E0,0E0,0E0,0E0,0E0,0E0,0E0,0E0,0E0,0E0,0E0,0E0,0E0,0E0,0E0,0E0,0E0,0E0,0E0,0E0,0E0,0E0,0E0,0E0],"parents":[2147483647,0,0,1,1,2,2,3,3,4,4,5,5,6,6,7,7,8,8,9,9,10,10,11,11,12,12,13,13,14,14,17,17,18,18,19,19,20,20,21,21,22,22,23,23,24,24,25,25,26,26,27,27,28,28,29,29,32,32,33,33,35,35,36,36,37,37,38,38,39,39,40,40,41,41,42,42,43,43,44,44,45,45,46,46,47,47,48,48,49,49,50,50,51,51,52,52,53,53,54,54,56,56],"right_children":[2,4,6,8,10,12,14,16,18,20,22,24,26,28,30,-1,-1,32,34,36,38,40,42,44,46,48,50,52,54,56,-1,-1,58,60,-1,62,64,66,68,70,72,74,76,78,80,82,84,86,88,90,92,94,96,98,100,-1,102,-1,-1,-1,-1,-1,-1,-1,-1,-1,-1,-1,-1,-1,-1,-1,-1,-1,-1,-1,-1,-1,-1,-1,-1,-1,-1,-1,-1,-1,-1,-1,-1,-1,-1,-1,-1,-1,-1,-1,-1,-1,-1,-1,-1,-1,-1],"split_conditions":[4.7403467E-1,3.4936118E-1,5.848297E-1,2.515125E-1,4.2585734E-1,5.280685E-1,6.687383E-1,9.253E0,3.1648883E-1,1.1821E1,1.0872E1,1.1392E1,1.1276E1,6.189795E-1,7.262508E-1,-7.709577E-3,-6.088251E-3,1.3021E1,7.362E1,3.8154733E-1,3.8154733E-1,4.7815E1,6.0011E1,5.794E1,5.008748E-1,6.3576E1,6.214E1,6.6993E1,7.4324E1,1.1952E1,7.541758E-3,-5.3780903E-3,1.6169E1,1.1221E1,-4.578027E-3,6.0011E1,6.8857E1,5.3082E1,6.8598E1,5.8766E1,4.5712733E-1,1.61E1,4.4769683E-1,4.9761218E-1,8.054E0,7.6437E1,4.7559E1,5.571772E-1,5.4394966E-1,5.49241E-1,8.4762E1,8.976231E-1,1.354E1,1.2178E1,6.303047E-1,4.609462E-3,9.1454E1,-4.316041E-3,-1.3714716E-3,-3.9280504E-3,-3.0000478E-3,-3.117289E-3,-3.8658162E-3,-2.1878066E-3,-2.997699E-3,-2.0061112E-3,-2.8410386E-3,-1.2012807E-3,-2.1155651E-3,-3.519291E-4,-1.2598204E-3,-1.9493357E-3,-1.1159882E-3,-3.1983302E-4,4.5998613E-4,-1.2205059E-3,-5.2787235E-4,-3.2158198E-6,9.118651E-4,-8.498189E-4,-1.145037E-4,7.246308E-4,-8.915229E-5,1.9803566E-3,9.6745585E-4,1.2513846E-3,2.2866272E-3,3.4888787E-4,1.0049238E-3,2.0766272E-3,2.941673E-3,2.055041E-3,1.4793816E-3,3.606818E-3,2.660878E-4,2.1925492E-3,3.2113108E-3,3.7494737E-3,5.0516515E-3,2.8893703E-3,3.842982E-3,5.945492E-3,4.0312693E-3],"split_indices":[10,10,10,10,10,10,10,5,10,5,5,5,5,10,10,0,0,5,2,10,10,2,2,2,10,2,2,2,2,5,0,0,7,5,0,2,2,2,2,0,10,5,10,10,5,2,2,10,10,10,2,9,5,5,10,0,2,0,0,0,0,0,0,0,0,0,0,0,0,0,0,0,0,0,0,0,0,0,0,0,0,0,0,0,0,0,0,0,0,0,0,0,0,0,0,0,0,0,0,0,0,0,0],"split_type":[0,0,0,0,0,0,0,0,0,0,0,0,0,0,0,0,0,0,0,0,0,0,0,0,0,0,0,0,0,0,0,0,0,0,0,0,0,0,0,0,0,0,0,0,0,0,0,0,0,0,0,0,0,0,0,0,0,0,0,0,0,0,0,0,0,0,0,0,0,0,0,0,0,0,0,0,0,0,0,0,0,0,0,0,0,0,0,0,0,0,0,0,0,0,0,0,0,0,0,0,0,0,0],"sum_hessian":[4.054E3,1.941E3,2.113E3,6.32E2,1.309E3,1.223E3,8.9E2,1.32E2,5E2,7.52E2,5.57E2,6.37E2,5.86E2,5.97E2,2.93E2,9.3E1,3.9E1,2.77E2,2.23E2,4.25E2,3.27E2,2.47E2,3.1E2,2.55E2,3.82E2,1.9E2,3.96E2,3.14E2,2.83E2,1.99E2,9.4E1,2.08E2,6.9E1,1.62E2,6.1E1,1.7E2,2.55E2,1.04E2,2.23E2,6.2E1,1.85E2,1.69E2,1.41E2,9.6E1,1.59E2,1.88E2,1.94E2,7.4E1,1.16E2,1.69E2,2.27E2,1.67E2,1.47E2,1.66E2,1.17E2,4.4E1,1.55E2,6.7E1,2E0,7.5E1,8.7E1,9.1E1,7.9E1,1.53E2,1.02E2,4.9E1,5.5E1,1.57E2,6.6E1,3.9E1,2.3E1,1.26E2,5.9E1,1.06E2,6.3E1,6.1E1,8E1,4.9E1,4.7E1,6.9E1,9E1,1.43E2,4.5E1,5.5E1,1.39E2,3.9E1,3.5E1,2.8E1,8.8E1,6.2E1,1.07E2,1.57E2,7E1,1.66E2,1E0,7.2E1,7.5E1,4.4E1,1.22E2,3E1,8.7E1,1.44E2,1.1E1],"tree_param":{"num_deleted":"0","num_feature":"11","num_nodes":"103","size_leaf_vector":"1"}},{"base_weights":[5.0440506E-4,-3.594124E-2,3.154098E-2,-6.2275488E-2,-7.646472E-3,5.8810116E-4,5.3949486E-2,-7.832009E-2,-4.470872E-2,-2.199304E-2,9.552659E-3,-2.0047514E-2,1.6541895E-2,4.1572176E-2,8.3588436E-2,-8.892638E-2,-5.518999E-2,-5.9659727E-2,-3.2280155E-2,-5.4580715E-2,-1.4924824E-2,-6.600205E-3,2.8742667E-2,-3.9789088E-2,-9.404377E-3,5.927363E-3,3.8116824E-2,2.6560573E-2,5.6523133E-2,7.016596E-2,1.0557488E-1,-1.04593284E-1,-7.809326E-2,-8.7943174E-2,-4.324067E-2,-6.741743E-2,-3.6862087E-2,-4.91181E-2,-1.9034648E-2,-6.2350754E-2,-1.4163824E-2,-2.3644442E-2,6.251193E-3,-2.2911739E-2,7.6765185E-3,5.1182774E-3,3.833478E-2,-5.5808973E-2,-2.4111321E-2,-3.8734447E-2,-9.982851E-4,-8.319876E-3,2.0307349E-2,1.0598101E-2,4.6987217E-2,1.1004783E-2,4.1716438E-2,4.0118523E-2,6.73899E-2,5.6972753E-2,9.757922E-2,6.5315864E-3,1.07004404E-1,-5.291741E-3,-7.550801E-4,-4.7551314E-3,-3.219916E-3,-4.524432E-3,-1.276885E-3,-2.9896754E-3,-1.1746978E-3,-3.9108065E-3,-2.5963292E-3,-2.9278276E-3,-1.1189191E-3,-3.539536E-3,-1.5119476E-3,-1.0483433E-3,1.396737E-3,-4.0204776E-3,-2.539408E-3,-2.0425955E-3,7.14737E-4,-1.8798094E-3,-5.651144E-4,7.858903E-5,2.1602816E-3,-2.8477702E-3,-6.1396684E-4,-1.6155759E-4,1.2923385E-3,-1.7012645E-3,7.9615175E-4,1.1869337E-3,2.4361038E-3,-3.3776339E-3,-1.7954468E-3,-1.7119398E-3,2.704011E-4,-1.5003803E-4,-2.3136758E-3,-5.0957676E-4,1.3392648E-3,-1.4097692E-3,1.5695023E-4,-3.6998058E-4,1.2567722E-3,-3.229627E-4,2.2587094E-3,2.150366E-3,4.2342735E-3,-1.0184896E-3,7.495586E-4,1.5067648E-3,2.8728284E-3,9.5402944E-4,2.3899341E-3,2.9717602E-3,4.659007E-3,1.3128034E-3,3.3624887E-3,3.6991057E-3,5.3153867E-3,-3.604144E-4,8.5028337E-4,3.850896E-3,5.6103473E-3],"categories":[],"categories_nodes":[],"categories_segments":[],"categories_sizes":[],"default_left":[0,0,0,0,0,0,0,0,0,0,0,0,0,0,0,0,0,0,0,0,0,0,0,0,0,0,0,0,0,0,0,0,0,0,0,0,0,0,0,0,0,0,0,0,0,0,0,0,0,0,0,0,0,0,0,0,0,0,0,0,0,0,0,0,0,0,0,0,0,0,0,0,0,0,0,0,0,0,0,0,0,0,0,0,0,0,0,0,0,0,0,0,0,0,0,0,0,0,0,0,0,0,0,0,0,0,0,0,0,0,0,0,0,0,0,0,0,0,0,0,0,0,0,0,0,0,0],"id":9,"left_children":[1,3,5,7,9,11,13,15,17,19,21,23,25,27,29,31,33,35,37,39,41,43,45,47,49,51,53,55,57,59,61,63,65,67,69,71,73,75,77,79,81,83,85,87,89,91,93,95,97,99,101,103,105,107,109,111,113,115,117,119,121,123,125,-1,-1,-1,-1,-1,-1,-1,-1,-1,-1,-1,-1,-1,-1,-1,-1,-1,-1,-1,-1,-1,-1,-1,-1,-1,-1,-1,-1,-1,-1,-1,-1,-1,-1,-1,-1,-1,-1,-1,-1,-1,-1,-1,-1,-1,-1,-1,-1,-1,-1,-1,-1,-1,-1,-1,-1,-1,-1,-1,-1,-1,-1,-1,-1],"loss_changes":[4.4736924E0,1.3548994E0,1.4815145E0,2.6200294E-1,2.1685527E-1,2.9596788E-1,4.5105267E-1,1.15546465E-1,8.206457E-2,1.09516665E-1,1.2417914E-1,8.198981E-2,1.15880996E-1,1.9510627E-1,1.00013256E-1,4.868889E-2,5.764371E-2,3.3593833E-2,5.459878E-2,2.5810301E-2,7.308328E-2,5.0942685E-2,4.1273028E-2,3.306274E-2,6.307846E-2,7.003137E-2,4.026705E-2,1.0304019E-1,7.537651E-2,7.726276E-2,1.8556476E-2,1.3289928E-2,4.0929794E-2,4.2020082E-3,3.6838323E-2,2.1197915E-2,1.5657283E-2,4.245788E-2,1.3382178E-2,1.0741442E-2,1.1976536E-2,4.7789574E-2,1.9991398E-2,3.6221154E-2,2.3272343E-2,2.3380367E-2,1.8553227E-2,1.3232186E-2,2.1411069E-2,1.5216865E-2,5.135726E-2,3.9261688E-2,2.2927202E-2,2.5062405E-2,1.5262336E-2,2.7570905E-2,3.873664E-2,2.7686715E-2,4.821205E-2,4.7795415E-2,7.1707964E-3,5.543194E-4,1.226294E-2,0E0,0E0,0E0,0E0,0E0,0E0,0E0,0E0,0E0,0E0,0E0,0E0,0E0,0E0,0E0,0E0,0E0,0E0,0E0,0E0,0E0,0E0,0E0,0E0,0E0,0E0,0E0,0E0,0E0,0E0,0E0,0E0,0E0,0E0,0E0,0E0,0E0,0E0,0E0,0E0,0E0,0E0,0E0,0E0,0E0,0E0,0E0,0E0,0E0,0E0,0E0,0E0,0E0,0E0,0E0,0E0,0E0,0E0,0E0,0E0,0E0,0E0,0E0,0E0],"parents":[2147483647,0,0,1,1,2,2,3,3,4,4,5,5,6,6,7,7,8,8,9,9,10,10,11,11,12,12,13,13,14,14,15,15,16,16,17,17,18,18,19,19,20,20,21,21,22,22,23,23,24,24,25,25,26,26,27,27,28,28,29,29,30,30,31,31,32,32,33,33,34,34,35,35,36,36,37,37,38,38,39,39,40,40,41,41,42,42,43,43,44,44,45,45,46,46,47,47,48,48,49,49,50,50,51,51,52,52,53,53,54,54,55,55,56,56,57,57,58,58,59,59,60,60,61,61,62,62],"right_children":[2,4,6,8,10,12,14,16,18,20,22,24,26,28,30,32,34,36,38,40,42,44,46,48,50,52,54,56,58,60,62,64,66,68,70,72,74,76,78,80,82,84,86,88,90,92,94,96,98,100,102,104,106,108,110,112,114,116,118,120,122,124,126,-1,-1,-1,-1,-1,-1,-1,-1,-1,-1,-1,-1,-1,-1,-1,-1,-1,-1,-1,-1,-1,-1,-1,-1,-1,-1,-1,-1,-1,-1,-1,-1,-1,-1,-1,-1,-1,-1,-1,-1,-1,-1,-1,-1,-1,-1,-1,-1,-1,-1,-1,-1,-1,-1,-1,-1,-1,-1,-1,-1,-1,-1,-1,-1],"split_conditions":[6.4268E1,1.2728E1,1.1392E1,9.196E0,6.0134E1,6.8855E1,7.1693E1,1.03402E2,5.9225E1,2.8714E1,1.6559E1,5.2069E1,5.75E-1,1.5833E1,5.75E-1,3.25E-1,5.7248E1,1.15615E2,7.2469E1,8.3241E1,1.792E1,3.5E-1,2.75E-1,3.5E-1,6.141E0,8.2137E1,4.0021E1,8.4907E1,6.1893E1,1.7287E1,1.1552E1,6.4045E1,5.851E1,1.47949E2,4.5E-1,5E-1,1.0525E1,4.25E-1,6.4221E1,1.4867E1,5.87E-1,8.5949E1,7.25E-1,2.9888E1,1.01947E2,4.3091E1,6.7471E1,6.7384E1,9.888E0,1.81E-1,6.75E-1,2.75E-1,5.865E0,9.253E0,7.308893E-1,3.646E1,6.8788E1,6.6451E1,6.75E-1,4.1163E1,4.498E0,7.3339E1,4.025E1,-5.291741E-3,-7.550801E-4,-4.7551314E-3,-3.219916E-3,-4.524432E-3,-1.276885E-3,-2.9896754E-3,-1.1746978E-3,-3.9108065E-3,-2.5963292E-3,-2.9278276E-3,-1.1189191E-3,-3.539536E-3,-1.5119476E-3,-1.0483433E-3,1.396737E-3,-4.0204776E-3,-2.539408E-3,-2.0425955E-3,7.14737E-4,-1.8798094E-3,-5.651144E-4,7.858903E-5,2.1602816E-3,-2.8477702E-3,-6.1396684E-4,-1.6155759E-4,1.2923385E-3,-1.7012645E-3,7.9615175E-4,1.1869337E-3,2.4361038E-3,-3.3776339E-3,-1.7954468E-3,-1.7119398E-3,2.704011E-4,-1.5003803E-4,-2.3136758E-3,-5.0957676E-4,1.3392648E-3,-1.4097692E-3,1.5695023E-4,-3.6998058E-4,1.2567722E-3,-3.229627E-4,2.2587094E-3,2.150366E-3,4.2342735E-3,-1.0184896E-3,7.495586E-4,1.5067648E-3,2.8728284E-3,9.5402944E-4,2.3899341E-3,2.9717602E-3,4.659007E-3,1.3128034E-3,3.3624887E-3,3.6991057E-3,5.3153867E-3,-3.604144E-4,8.5028337E-4,3.850896E-3,5.6103473E-3],"split_indices":[1,5,5,5,1,1,1,3,1,3,5,3,8,5,8,8,1,3,3,2,5,8,8,8,5,3,3,3,3,5,5,1,1,3,8,8,5,8,1,5,4,3,8,3,3,3,3,1,5,4,8,8,5,5,9,2,1,1,8,3,7,1,2,0,0,0,0,0,0,0,0,0,0,0,0,0,0,0,0,0,0,0,0,0,0,0,0,0,0,0,0,0,0,0,0,0,0,0,0,0,0,0,0,0,0,0,0,0,0,0,0,0,0,0,0,0,0,0,0,0,0,0,0,0,0,0,0],"split_type":[0,0,0,0,0,0,0,0,0,0,0,0,0,0,0,0,0,0,0,0,0,0,0,0,0,0,0,0,0,0,0,0,0,0,0,0,0,0,0,0,0,0,0,0,0,0,0,0,0,0,0,0,0,0,0,0,0,0,0,0,0,0,0,0,0,0,0,0,0,0,0,0,0,0,0,0,0,0,0,0,0,0,0,0,0,0,0,0,0,0,0,0,0,0,0,0,0,0,0,0,0,0,0,0,0,0,0,0,0,0,0,0,0,0,0,0,0,0,0,0,0,0,0,0,0,0,0],"sum_hessian":[3.953E3,1.818E3,2.135E3,9.41E2,8.77E2,8.97E2,1.238E3,4.9E2,4.51E2,4.78E2,3.99E2,3.91E2,5.06E2,8.75E2,3.63E2,3.34E2,1.56E2,2.03E2,2.48E2,8.4E1,3.94E2,2.17E2,1.82E2,1.36E2,2.55E2,3.4E2,1.66E2,4.38E2,4.37E2,2.28E2,1.35E2,1.33E2,2.01E2,4E1,1.16E2,1.5E2,5.3E1,1.08E2,1.4E2,7E1,1.4E1,2.79E2,1.15E2,1.01E2,1.16E2,5.3E1,1.29E2,6.6E1,7E1,5.6E1,1.99E2,1.71E2,1.69E2,4.1E1,1.25E2,2.17E2,2.21E2,1.76E2,2.61E2,1.56E2,7.2E1,2E0,1.33E2,1.31E2,2E0,8.7E1,1.14E2,3.8E1,2E0,6.2E1,5.4E1,8.6E1,6.4E1,2E1,3.3E1,4.9E1,5.9E1,1.35E2,5E0,2.5E1,4.5E1,7E0,7E0,1.3E2,1.49E2,1.03E2,1.2E1,2.3E1,7.8E1,7.3E1,4.3E1,1.1E1,4.2E1,5.5E1,7.4E1,4E1,2.6E1,5.2E1,1.8E1,1E1,4.6E1,1.5E2,4.9E1,6.2E1,1.09E2,2.5E1,1.44E2,2.8E1,1.3E1,1.15E2,1E1,2.4E1,1.93E2,1.29E2,9.2E1,4.8E1,1.28E2,2.02E2,5.9E1,4E1,1.16E2,2.2E1,5E1,1E0,1E0,2.2E1,1.11E2],"tree_param":{"num_deleted":"0","num_feature":"11","num_nodes":"127","size_leaf_vector":"1"}},{"base_weights":[9.059671E-5,-4.7675855E-2,5.2626155E-2,-8.962286E-2,-2.5788961E-2,3.3279125E-2,9.659692E-2,-1.2021262E-1,-7.504881E-2,-4.0275365E-2,-1.0513202E-2,2.2125859E-2,5.2109096E-2,8.561551E-2,1.3146716E-1,-1.343907E-1,-1.0311064E-1,-8.685541E-2,-5.815348E-2,-5.3513724E-2,-2.7035438E-2,-2.0713136E-2,4.9584946E-3,1.0004914E-2,3.5154358E-2,3.9690584E-2,6.426742E-2,7.062738E-2,9.554869E-2,6.027296E-3,7.4138823E-3,-1.4321691E-1,-5.3537255E-3,-5.8012917E-3,-4.5099515E-3,-9.590032E-2,-7.5661294E-2,-7.1894266E-2,-5.1111855E-2,-6.8284094E-2,-4.7347356E-2,-3.6905114E-2,-1.6205234E-2,-3.3568334E-2,-1.4627205E-2,-6.343433E-3,1.2347131E-2,-3.4680548E-3,1.6683869E-2,2.6092928E-2,4.54815E-2,3.200925E-2,5.1643778E-2,5.615561E-2,7.346156E-2,6.238069E-2,4.018107E-3,8.4449045E-2,1.0703216E-1,-7.1965316E-3,-1.9923858E-3,-5.3260974E-3,-4.318699E-3,-4.188274E-3,-3.3702308E-3,-3.97562E-3,-2.9924081E-3,-3.077768E-3,-2.1200448E-3,-3.7340631E-3,-2.9436364E-3,-2.636142E-3,-1.6124313E-3,-2.4259998E-3,-1.473893E-3,-1.2635837E-3,-4.6323054E-4,-2.1305708E-3,-1.2214574E-3,-1.2096717E-3,-3.6042964E-4,-6.3870335E-4,3.083938E-4,2.1273688E-4,1.0665067E-3,-8.620131E-4,1.351207E-4,3.7111095E-4,1.2979101E-3,9.948878E-4,1.7560687E-3,1.9252095E-3,2.8562776E-3,8.3107484E-4,1.7813614E-3,2.1350195E-3,2.9755626E-3,2.083134E-3,3.0675095E-3,2.750136E-3,3.944752E-3,1.7330779E-3,3.249427E-3,3.5859824E-3,4.7904872E-3,3.5247803E-3,5.461071E-3],"categories":[],"categories_nodes":[],"categories_segments":[],"categories_sizes":[],"default_left":[0,0,0,0,0,0,0,0,0,0,0,0,0,0,0,0,0,0,0,0,0,0,0,0,0,0,0,0,0,0,0,0,0,0,0,0,0,0,0,0,0,0,0,0,0,0,0,0,0,0,0,0,0,0,0,0,0,0,0,0,0,0,0,0,0,0,0,0,0,0,0,0,0,0,0,0,0,0,0,0,0,0,0,0,0,0,0,0,0,0,0,0,0,0,0,0,0,0,0,0,0,0,0,0,0,0,0],"id":10,"left_children":[1,3,5,7,9,11,13,15,17,19,21,23,25,27,29,31,33,35,37,39,41,43,45,47,49,51,53,55,57,-1,-1,59,-1,-1,-1,61,63,65,67,69,71,73,75,77,79,81,83,85,87,89,91,93,95,97,99,101,-1,103,105,-1,-1,-1,-1,-1,-1,-1,-1,-1,-1,-1,-1,-1,-1,-1,-1,-1,-1,-1,-1,-1,-1,-1,-1,-1,-1,-1,-1,-1,-1,-1,-1,-1,-1,-1,-1,-1,-1,-1,-1,-1,-1,-1,-1,-1,-1,-1,-1],"loss_changes":[1.0080409E1,1.9293494E0,1.6241817E0,3.124118E-1,3.0584317E-1,2.7816796E-1,2.123723E-1,4.2154312E-2,9.289193E-2,1.2299836E-1,1.06624655E-1,1.3182542E-1,7.203746E-2,5.9800863E-2,7.4613094E-3,1.4320374E-2,7.7108145E-3,2.1802902E-2,1.6160607E-2,2.9008985E-2,3.7561893E-2,3.135097E-2,2.2541393E-2,3.9201483E-2,3.6525458E-2,2.1025598E-2,1.4370799E-2,9.597838E-3,2.4866343E-2,0E0,0E0,9.046793E-4,0E0,0E0,0E0,6.482959E-3,3.2532811E-3,1.3898313E-3,1.0035247E-2,1.7443597E-3,1.8834054E-2,1.4615327E-2,1.0589268E-2,9.70307E-3,1.9554734E-2,8.687543E-3,1.1758365E-2,1.2368832E-2,2.4802968E-2,1.1438578E-2,1.29930675E-2,7.925719E-3,4.1432083E-3,7.682681E-3,6.9939494E-3,5.1929653E-3,0E0,1.3374686E-2,2.45893E-3,0E0,0E0,0E0,0E0,0E0,0E0,0E0,0E0,0E0,0E0,0E0,0E0,0E0,0E0,0E0,0E0,0E0,0E0,0E0,0E0,0E0,0E0,0E0,0E0,0E0,0E0,0E0,0E0,0E0,0E0,0E0,0E0,0E0,0E0,0E0,0E0,0E0,0E0,0E0,0E0,0E0,0E0,0E0,0E0,0E0,0E0,0E0,0E0],"parents":[2147483647,0,0,1,1,2,2,3,3,4,4,5,5,6,6,7,7,8,8,9,9,10,10,11,11,12,12,13,13,14,14,15,15,16,16,17,17,18,18,19,19,20,20,21,21,22,22,23,23,24,24,25,25,26,26,27,27,28,28,31,31,35,35,36,36,37,37,38,38,39,39,40,40,41,41,42,42,43,43,44,44,45,45,46,46,47,47,48,48,49,49,50,50,51,51,52,52,53,53,54,54,55,55,57,57,58,58],"right_children":[2,4,6,8,10,12,14,16,18,20,22,24,26,28,30,32,34,36,38,40,42,44,46,48,50,52,54,56,58,-1,-1,60,-1,-1,-1,62,64,66,68,70,72,74,76,78,80,82,84,86,88,90,92,94,96,98,100,102,-1,104,106,-1,-1,-1,-1,-1,-1,-1,-1,-1,-1,-1,-1,-1,-1,-1,-1,-1,-1,-1,-1,-1,-1,-1,-1,-1,-1,-1,-1,-1,-1,-1,-1,-1,-1,-1,-1,-1,-1,-1,-1,-1,-1,-1,-1,-1,-1,-1,-1],"split_conditions":[4.9073583E-1,3.6049867E-1,6.189795E-1,2.8353834E-1,4.3308184E-1,5.6554514E-1,7.06499E-1,2.515125E-1,5E-1,4.5E-1,5E-1,4.5E-1,4.25E-1,3.5E-1,7.51131E-1,9.5925E1,4.25E-1,3.2851332E-1,4.1163E1,3.8512233E-1,1.161E1,4.8904E1,1.0978E1,1.105E1,1.3735E1,1.5524E1,1.3967E1,6.59258E-1,7.8561E1,6.027296E-3,7.4138823E-3,1.6447E1,-5.3537255E-3,-5.8012917E-3,-4.5099515E-3,6.1893E1,2.75E-1,3.2851332E-1,1.0163E1,5.9757E1,1.03402E2,6.0948E1,3.9561233E-1,1.161E1,4.586925E-1,9.1003E1,8.0581E1,5.0654984E-1,7.6727E1,5.3006583E-1,5.391908E-1,7.92E0,8.7065E1,5.8946E1,3.8772E1,8.952E0,4.018107E-3,1.4951E1,7.175E0,-7.1965316E-3,-1.9923858E-3,-5.3260974E-3,-4.318699E-3,-4.188274E-3,-3.3702308E-3,-3.97562E-3,-2.9924081E-3,-3.077768E-3,-2.1200448E-3,-3.7340631E-3,-2.9436364E-3,-2.636142E-3,-1.6124313E-3,-2.4259998E-3,-1.473893E-3,-1.2635837E-3,-4.6323054E-4,-2.1305708E-3,-1.2214574E-3,-1.2096717E-3,-3.6042964E-4,-6.3870335E-4,3.083938E-4,2.1273688E-4,1.0665067E-3,-8.620131E-4,1.351207E-4,3.7111095E-4,1.2979101E-3,9.948878E-4,1.7560687E-3,1.9252095E-3,2.8562776E-3,8.3107484E-4,1.7813614E-3,2.1350195E-3,2.9755626E-3,2.083134E-3,3.0675095E-3,2.750136E-3,3.944752E-3,1.7330779E-3,3.249427E-3,3.5859824E-3,4.7904872E-3,3.5247803E-3,5.461071E-3],"split_indices":[10,10,10,10,10,10,10,10,8,8,8,8,8,8,10,3,8,10,3,10,5,3,5,5,5,5,5,10,3,0,0,5,0,0,0,3,8,10,5,3,3,3,10,5,10,3,3,10,3,10,10,5,3,3,3,5,0,5,5,0,0,0,0,0,0,0,0,0,0,0,0,0,0,0,0,0,0,0,0,0,0,0,0,0,0,0,0,0,0,0,0,0,0,0,0,0,0,0,0,0,0,0,0,0,0,0,0],"split_type":[0,0,0,0,0,0,0,0,0,0,0,0,0,0,0,0,0,0,0,0,0,0,0,0,0,0,0,0,0,0,0,0,0,0,0,0,0,0,0,0,0,0,0,0,0,0,0,0,0,0,0,0,0,0,0,0,0,0,0,0,0,0,0,0,0,0,0,0,0,0,0,0,0,0,0,0,0,0,0,0,0,0,0,0,0,0,0,0,0,0,0,0,0,0,0,0,0,0,0,0,0,0,0,0,0,0,0],"sum_hessian":[4.015E3,2.103E3,1.912E3,7.2E2,1.383E3,1.329E3,5.83E2,2.3E2,4.9E2,7.09E2,6.74E2,8.36E2,4.93E2,4.46E2,1.37E2,1.22E2,1.08E2,2.86E2,2.04E2,3.53E2,3.56E2,4.06E2,2.68E2,4.34E2,4.02E2,2.46E2,2.47E2,1.81E2,2.65E2,8.8E1,4.9E1,8.9E1,3.3E1,5E1,5.8E1,1.54E2,1.32E2,6.6E1,1.38E2,1.01E2,2.52E2,1.85E2,1.71E2,1.29E2,2.77E2,1.06E2,1.62E2,1.44E2,2.9E2,2.16E2,1.86E2,1.52E2,9.4E1,1.35E2,1.12E2,1.02E2,7.9E1,1.39E2,1.26E2,8.8E1,1E0,6.8E1,8.6E1,6.2E1,7E1,3.7E1,2.9E1,6E1,7.8E1,5.6E1,4.5E1,1.84E2,6.8E1,7E1,1.15E2,7.3E1,9.8E1,6.3E1,6.6E1,1.2E2,1.57E2,7E1,3.6E1,8.6E1,7.6E1,4.4E1,1E2,1.46E2,1.44E2,1.3E2,8.6E1,1.19E2,6.7E1,3E1,1.22E2,4.7E1,4.7E1,3.8E1,9.7E1,2.8E1,8.4E1,1E1,9.2E1,6.9E1,7E1,9E0,1.17E2],"tree_param":{"num_deleted":"0","num_feature":"11","num_nodes":"107","size_leaf_vector":"1"}},{"base_weights":[-5.870756E-4,-4.6313494E-2,4.861551E-2,-8.629065E-2,-2.527287E-2,2.9291235E-2,8.9156E-2,-1.1350579E-1,-7.224726E-2,-3.8364347E-2,-1.0589224E-2,1.4990888E-2,4.3100376E-2,7.5920835E-2,1.1669195E-1,-6.7446693E-3,-1.0184729E-1,-8.2962595E-2,-5.6078006E-2,-5.122376E-2,-2.6585555E-2,-2.3966972E-2,4.1993317E-4,1.3275068E-3,2.706626E-2,3.0324321E-2,5.5375375E-2,6.592364E-2,9.050188E-2,1.07981026E-1,7.319546E-3,-1.1059579E-1,-4.140833E-3,-9.539464E-2,-7.326762E-2,-6.323875E-2,-4.4617947E-2,-5.8273837E-2,-4.1398153E-2,-3.7539423E-2,-1.7487219E-2,-3.3979688E-2,-1.6522598E-2,-8.677848E-3,9.825479E-3,-1.5486286E-2,5.8381227E-3,1.415018E-2,3.3462778E-2,2.075725E-2,3.7057474E-2,4.6720106E-2,6.401014E-2,5.7407193E-2,7.50214E-2,7.0284896E-2,4.879898E-3,9.3367636E-2,5.9888377E-3,-5.5540237E-3,-1.4683865E-3,-4.9330853E-3,-3.8029857E-3,-4.1522635E-3,-3.3367071E-3,-3.3449286E-3,-2.4913116E-3,-2.6760083E-3,-1.7171709E-3,-3.2327403E-3,-2.4658053E-3,-2.4503253E-3,-1.6110089E-3,-2.1866763E-3,-1.4164548E-3,-1.335435E-3,-5.035622E-4,-1.9446498E-3,-1.2551355E-3,-1.1381812E-3,-4.434774E-4,-7.768787E-4,-7.465219E-5,1.4818631E-4,8.739121E-4,-1.2105907E-3,-4.713768E-4,-2.2294084E-4,5.523133E-4,-6.5169035E-5,9.6581737E-4,1.4083731E-3,2.1519703E-3,7.288295E-4,1.5108066E-3,1.3464454E-3,2.17743E-3,1.6866518E-3,2.5915368E-3,2.351633E-3,3.3983437E-3,2.2662603E-3,3.160653E-3,2.3998532E-3,3.812988E-3,3.719888E-3,2.3608133E-3,3.7228134E-3,5.172609E-3],"categories":[],"categories_nodes":[],"categories_segments":[],"categories_sizes":[],"default_left":[0,0,0,0,0,0,0,0,0,0,0,0,0,0,0,0,0,0,0,0,0,0,0,0,0,0,0,0,0,0,0,0,0,0,0,0,0,0,0,0,0,0,0,0,0,0,0,0,0,0,0,0,0,0,0,0,0,0,0,0,0,0,0,0,0,0,0,0,0,0,0,0,0,0,0,0,0,0,0,0,0,0,0,0,0,0,0,0,0,0,0,0,0,0,0,0,0,0,0,0,0,0,0,0,0,0,0,0,0],"id":11,"left_children":[1,3,5,7,9,11,13,15,17,19,21,23,25,27,29,-1,31,33,35,37,39,41,43,45,47,49,51,53,55,57,-1,59,-1,61,63,65,67,69,71,73,75,77,79,81,83,85,87,89,91,93,95,97,99,101,103,105,-1,107,-1,-1,-1,-1,-1,-1,-1,-1,-1,-1,-1,-1,-1,-1,-1,-1,-1,-1,-1,-1,-1,-1,-1,-1,-1,-1,-1,-1,-1,-1,-1,-1,-1,-1,-1,-1,-1,-1,-1,-1,-1,-1,-1,-1,-1,-1,-1,-1,-1,-1,-1],"loss_changes":[9.093928E0,1.7600164E0,1.5226989E0,2.677431E-1,2.6371866E-1,2.600217E-1,2.2001123E-1,4.7102213E-2,7.833862E-2,1.0860419E-1,9.559332E-2,1.07207835E-1,1.0355103E-1,5.6277514E-2,3.64511E-2,0E0,1.7812252E-2,2.7481675E-2,1.3098538E-2,2.1555364E-2,3.7314773E-2,2.1278322E-2,3.0633608E-2,2.3297621E-2,2.802968E-2,2.0552665E-2,2.2494555E-2,1.5605807E-2,1.7672181E-2,1.6396761E-2,0E0,9.897947E-4,0E0,2.0229816E-4,4.998684E-3,2.409935E-3,5.29629E-3,8.186102E-3,8.7557435E-3,8.573607E-3,1.4092125E-2,4.431978E-3,7.917788E-3,8.946813E-3,9.190202E-3,3.208017E-3,1.3027212E-2,9.2861205E-3,1.0451287E-2,7.6857843E-3,1.1516243E-2,9.800345E-3,8.088827E-3,6.7448914E-3,3.8915873E-4,1.0413527E-3,0E0,6.7914724E-3,0E0,0E0,0E0,0E0,0E0,0E0,0E0,0E0,0E0,0E0,0E0,0E0,0E0,0E0,0E0,0E0,0E0,0E0,0E0,0E0,0E0,0E0,0E0,0E0,0E0,0E0,0E0,0E0,0E0,0E0,0E0,0E0,0E0,0E0,0E0,0E0,0E0,0E0,0E0,0E0,0E0,0E0,0E0,0E0,0E0,0E0,0E0,0E0,0E0,0E0,0E0],"parents":[2147483647,0,0,1,1,2,2,3,3,4,4,5,5,6,6,7,7,8,8,9,9,10,10,11,11,12,12,13,13,14,14,16,16,17,17,18,18,19,19,20,20,21,21,22,22,23,23,24,24,25,25,26,26,27,27,28,28,29,29,31,31,33,33,34,34,35,35,36,36,37,37,38,38,39,39,40,40,41,41,42,42,43,43,44,44,45,45,46,46,47,47,48,48,49,49,50,50,51,51,52,52,53,53,54,54,55,55,57,57],"right_children":[2,4,6,8,10,12,14,16,18,20,22,24,26,28,30,-1,32,34,36,38,40,42,44,46,48,50,52,54,56,58,-1,60,-1,62,64,66,68,70,72,74,76,78,80,82,84,86,88,90,92,94,96,98,100,102,104,106,-1,108,-1,-1,-1,-1,-1,-1,-1,-1,-1,-1,-1,-1,-1,-1,-1,-1,-1,-1,-1,-1,-1,-1,-1,-1,-1,-1,-1,-1,-1,-1,-1,-1,-1,-1,-1,-1,-1,-1,-1,-1,-1,-1,-1,-1,-1,-1,-1,-1,-1,-1,-1],"split_conditions":[4.870415E-1,3.6049867E-1,6.108425E-1,2.8353834E-1,4.3308184E-1,5.4394966E-1,6.887655E-1,2.293945E-1,5E-1,4.25E-1,3.5E-1,4.25E-1,4.25E-1,5E-1,7.51131E-1,-6.7446693E-3,5.75E-1,3.2112116E-1,1.2128E1,1.1821E1,1.0362E1,1.0872E1,1.2236E1,9.196E0,1.0909E1,1.3021E1,5.7771415E-1,6.43943E-1,1.0495E1,4.25E-1,7.319546E-3,9.9809E1,-4.140833E-3,1.2969E1,9.084E0,3.4145966E-1,3.31374E-1,4.03273E-1,4.018165E-1,4.06087E-1,3.9561233E-1,4.657645E-1,4.657645E-1,4.5712733E-1,6.75E-1,2E-1,2E-1,4.9761218E-1,7E-1,5.833617E-1,5.667887E-1,1.0601E1,8.609E0,1.2083E1,8.164E0,1.3418E1,4.879898E-3,1.3912E1,5.9888377E-3,-5.5540237E-3,-1.4683865E-3,-4.9330853E-3,-3.8029857E-3,-4.1522635E-3,-3.3367071E-3,-3.3449286E-3,-2.4913116E-3,-2.6760083E-3,-1.7171709E-3,-3.2327403E-3,-2.4658053E-3,-2.4503253E-3,-1.6110089E-3,-2.1866763E-3,-1.4164548E-3,-1.335435E-3,-5.035622E-4,-1.9446498E-3,-1.2551355E-3,-1.1381812E-3,-4.434774E-4,-7.768787E-4,-7.465219E-5,1.4818631E-4,8.739121E-4,-1.2105907E-3,-4.713768E-4,-2.2294084E-4,5.523133E-4,-6.5169035E-5,9.6581737E-4,1.4083731E-3,2.1519703E-3,7.288295E-4,1.5108066E-3,1.3464454E-3,2.17743E-3,1.6866518E-3,2.5915368E-3,2.351633E-3,3.3983437E-3,2.2662603E-3,3.160653E-3,2.3998532E-3,3.812988E-3,3.719888E-3,2.3608133E-3,3.7228134E-3,5.172609E-3],"split_indices":[10,10,10,10,10,10,10,10,8,8,8,8,8,8,10,0,8,10,5,5,5,5,5,5,5,5,10,10,5,8,0,6,0,5,5,10,10,10,10,10,10,10,10,10,8,8,8,10,8,10,10,5,5,5,5,7,0,5,0,0,0,0,0,0,0,0,0,0,0,0,0,0,0,0,0,0,0,0,0,0,0,0,0,0,0,0,0,0,0,0,0,0,0,0,0,0,0,0,0,0,0,0,0,0,0,0,0,0,0],"split_type":[0,0,0,0,0,0,0,0,0,0,0,0,0,0,0,0,0,0,0,0,0,0,0,0,0,0,0,0,0,0,0,0,0,0,0,0,0,0,0,0,0,0,0,0,0,0,0,0,0,0,0,0,0,0,0,0,0,0,0,0,0,0,0,0,0,0,0,0,0,0,0,0,0,0,0,0,0,0,0,0,0,0,0,0,0,0,0,0,0,0,0,0,0,0,0,0,0,0,0,0,0,0,0,0,0,0,0,0,0],"sum_hessian":[4.04E3,2.094E3,1.946E3,7.21E2,1.373E3,1.319E3,6.27E2,2.43E2,4.78E2,7.25E2,6.48E2,6.49E2,6.7E2,4.26E2,2.01E2,8.2E1,1.61E2,2.85E2,1.93E2,3.45E2,3.8E2,2.92E2,3.56E2,3.05E2,3.44E2,3.3E2,3.4E2,2.56E2,1.7E2,1.59E2,4.2E1,1.07E2,5.4E1,1.21E2,1.64E2,1.16E2,7.7E1,1.98E2,1.47E2,1.71E2,2.09E2,1.23E2,1.69E2,1.81E2,1.75E2,6.4E1,2.41E2,1.15E2,2.29E2,1.38E2,1.92E2,1.73E2,1.67E2,1.36E2,1.2E2,4.7E1,1.23E2,7.5E1,8.4E1,1.06E2,1E0,1E2,2.1E1,6.1E1,1.03E2,8.8E1,2.8E1,3.9E1,3.8E1,1.12E2,8.6E1,7.8E1,6.9E1,1E2,7.1E1,9.2E1,1.17E2,7.7E1,4.6E1,9.2E1,7.7E1,9.2E1,8.9E1,9.3E1,8.2E1,2.5E1,3.9E1,8.1E1,1.6E2,2.9E1,8.6E1,1.5E2,7.9E1,8.5E1,5.3E1,7.7E1,1.15E2,5.1E1,1.22E2,3.4E1,1.33E2,4.7E1,8.9E1,7E0,1.13E2,3.8E1,9E0,2.9E1,4.6E1],"tree_param":{"num_deleted":"0","num_feature":"11","num_nodes":"109","size_leaf_vector":"1"}},{"base_weights":[6.289468E-5,-4.9947593E-2,4.1021887E-2,-8.763646E-2,-3.1651873E-2,1.8587654E-2,7.533598E-2,-1.197479E-1,-7.8440785E-2,-4.4256598E-2,-1.8289778E-2,4.9357945E-3,2.9922988E-2,6.0315408E-2,1.0079068E-1,-1.2772062E-1,-4.780195E-3,-8.595185E-2,-6.691399E-2,-5.246175E-2,-3.256761E-2,-1.0367574E-2,-2.7734322E-2,-5.732044E-3,1.2112637E-2,1.428128E-2,3.4033E-2,5.4326653E-2,7.2492376E-2,8.953517E-2,1.218607E-1,-6.569533E-3,-4.58464E-3,-8.974526E-2,-6.6624194E-2,-7.101727E-2,-5.0161593E-2,-5.8308396E-2,-3.8195238E-2,-4.0105544E-2,-2.1587314E-2,-1.7575162E-2,-2.3438253E-3,-3.213828E-2,-1.3125731E-2,-1.1221993E-2,8.642264E-3,1.0398868E-3,1.7396195E-2,1.126288E-3,1.9248698E-2,4.2221036E-2,2.7188312E-2,6.1986875E-2,4.515688E-2,6.05618E-2,8.039912E-2,7.5379744E-2,4.7554723E-3,4.299849E-3,6.312032E-3,-4.259131E-3,-5.1558646E-3,-3.6002614E-3,-2.0744617E-3,-3.8184158E-3,-3.0614233E-3,-2.8149227E-3,-2.0207835E-3,-3.3105172E-3,-2.6161426E-3,-2.409974E-3,-1.4450063E-3,-2.396196E-3,-1.6467171E-3,-6.8010914E-4,-1.3758404E-3,-1.2045556E-3,-4.185816E-4,-5.527837E-4,1.904473E-4,-1.9164603E-3,-1.1250989E-3,-1.0143771E-3,-3.306007E-4,-5.7518373E-5,-9.758314E-4,1.4949082E-4,1.0162558E-3,-1.0141744E-4,7.654401E-4,1.1364144E-3,5.0948485E-4,-9.48169E-4,2.4482977E-4,7.188893E-4,1.6586991E-3,1.8678494E-3,2.6860463E-3,8.392796E-4,1.553357E-3,1.8151362E-3,3.2319494E-3,1.8242646E-3,2.6111999E-3,3.0951784E-3,1.0634765E-3,4.212257E-3,2.788048E-3,2.328818E-3,3.9026488E-3],"categories":[],"categories_nodes":[],"categories_segments":[],"categories_sizes":[],"default_left":[0,0,0,0,0,0,0,0,0,0,0,0,0,0,0,0,0,0,0,0,0,0,0,0,0,0,0,0,0,0,0,0,0,0,0,0,0,0,0,0,0,0,0,0,0,0,0,0,0,0,0,0,0,0,0,0,0,0,0,0,0,0,0,0,0,0,0,0,0,0,0,0,0,0,0,0,0,0,0,0,0,0,0,0,0,0,0,0,0,0,0,0,0,0,0,0,0,0,0,0,0,0,0,0,0,0,0,0,0,0,0],"id":12,"left_children":[1,3,5,7,9,11,13,15,17,19,21,23,25,27,29,31,-1,33,35,37,39,41,43,45,47,49,51,53,55,57,59,-1,-1,61,63,65,67,69,71,73,75,77,79,81,83,85,87,89,91,93,95,97,99,101,103,105,107,109,-1,-1,-1,-1,-1,-1,-1,-1,-1,-1,-1,-1,-1,-1,-1,-1,-1,-1,-1,-1,-1,-1,-1,-1,-1,-1,-1,-1,-1,-1,-1,-1,-1,-1,-1,-1,-1,-1,-1,-1,-1,-1,-1,-1,-1,-1,-1,-1,-1,-1,-1,-1,-1],"loss_changes":[8.193518E0,1.2390966E0,1.6914129E0,1.6423512E-1,2.0365918E-1,2.0582238E-1,3.261776E-1,1.2621045E-2,3.407502E-2,5.8139205E-2,4.3932036E-2,4.6389073E-2,4.625112E-2,3.6097407E-2,6.521559E-2,3.8158894E-4,0E0,1.4183044E-2,9.223223E-3,2.8217912E-2,2.0654082E-2,1.8638503E-2,1.6884461E-2,1.9352052E-2,2.1160185E-2,9.976311E-3,3.1077683E-2,2.3331046E-2,1.1922061E-2,9.637713E-3,6.265521E-3,0E0,0E0,5.0657988E-3,3.6399066E-3,3.0240417E-3,1.1704117E-4,8.691132E-3,8.743018E-3,6.9999397E-3,4.7392696E-3,9.993173E-3,8.296822E-3,1.142697E-2,2.8514592E-3,1.4764212E-2,4.429727E-3,5.197138E-3,9.182699E-3,3.3498576E-3,7.052034E-3,1.2536526E-2,1.2229234E-2,1.1276901E-2,8.696586E-3,2.6374161E-3,5.157292E-3,1.3694465E-3,0E0,0E0,0E0,0E0,0E0,0E0,0E0,0E0,0E0,0E0,0E0,0E0,0E0,0E0,0E0,0E0,0E0,0E0,0E0,0E0,0E0,0E0,0E0,0E0,0E0,0E0,0E0,0E0,0E0,0E0,0E0,0E0,0E0,0E0,0E0,0E0,0E0,0E0,0E0,0E0,0E0,0E0,0E0,0E0,0E0,0E0,0E0,0E0,0E0,0E0,0E0,0E0,0E0],"parents":[2147483647,0,0,1,1,2,2,3,3,4,4,5,5,6,6,7,7,8,8,9,9,10,10,11,11,12,12,13,13,14,14,15,15,17,17,18,18,19,19,20,20,21,21,22,22,23,23,24,24,25,25,26,26,27,27,28,28,29,29,30,30,33,33,34,34,35,35,36,36,37,37,38,38,39,39,40,40,41,41,42,42,43,43,44,44,45,45,46,46,47,47,48,48,49,49,50,50,51,51,52,52,53,53,54,54,55,55,56,56,57,57],"right_children":[2,4,6,8,10,12,14,16,18,20,22,24,26,28,30,32,-1,34,36,38,40,42,44,46,48,50,52,54,56,58,60,-1,-1,62,64,66,68,70,72,74,76,78,80,82,84,86,88,90,92,94,96,98,100,102,104,106,108,110,-1,-1,-1,-1,-1,-1,-1,-1,-1,-1,-1,-1,-1,-1,-1,-1,-1,-1,-1,-1,-1,-1,-1,-1,-1,-1,-1,-1,-1,-1,-1,-1,-1,-1,-1,-1,-1,-1,-1,-1,-1,-1,-1,-1,-1,-1,-1,-1,-1,-1,-1,-1,-1],"split_conditions":[4.6680766E-1,3.4145966E-1,5.848297E-1,2.515125E-1,4.1446316E-1,5.173387E-1,6.59258E-1,9.5925E1,3.1414783E-1,8.3237E1,6.3576E1,6.8499E1,3.6713E1,6.303047E-1,7.1960133E-1,1.2307E1,-4.780195E-3,1.4444E1,1.4721E1,1.4168E1,1.2627E1,1.2969E1,1.16973E2,1.6344E1,1.0525E1,1.0495E1,6.3361E1,6.802E1,1.4392E1,6.03E1,2.8056E1,-6.569533E-3,-4.58464E-3,7.3268E1,1.07208E2,9.1597E1,8.9722E1,3.750555E-1,3.8320133E-1,3.8154733E-1,5.26E1,4.4437233E-1,6.03E1,1.2128E1,9.805E0,6.0962E1,5.0276065E-1,1.34981E2,6.1597E1,6.395E0,5.64319E-1,1.6901E1,1.0362E1,2.4065E1,1.3073E1,9.2986E1,8.4762E1,1.351E1,4.7554723E-3,4.299849E-3,6.312032E-3,-4.259131E-3,-5.1558646E-3,-3.6002614E-3,-2.0744617E-3,-3.8184158E-3,-3.0614233E-3,-2.8149227E-3,-2.0207835E-3,-3.3105172E-3,-2.6161426E-3,-2.409974E-3,-1.4450063E-3,-2.396196E-3,-1.6467171E-3,-6.8010914E-4,-1.3758404E-3,-1.2045556E-3,-4.185816E-4,-5.527837E-4,1.904473E-4,-1.9164603E-3,-1.1250989E-3,-1.0143771E-3,-3.306007E-4,-5.7518373E-5,-9.758314E-4,1.4949082E-4,1.0162558E-3,-1.0141744E-4,7.654401E-4,1.1364144E-3,5.0948485E-4,-9.48169E-4,2.4482977E-4,7.188893E-4,1.6586991E-3,1.8678494E-3,2.6860463E-3,8.392796E-4,1.553357E-3,1.8151362E-3,3.2319494E-3,1.8242646E-3,2.6111999E-3,3.0951784E-3,1.0634765E-3,4.212257E-3,2.788048E-3,2.328818E-3,3.9026488E-3],"split_indices":[10,10,10,10,10,10,10,3,10,3,2,3,3,10,10,5,0,5,5,5,5,5,3,5,5,5,2,2,5,3,3,0,0,2,3,3,3,10,10,10,2,10,3,5,5,2,10,3,2,5,10,5,5,3,5,2,2,3,0,0,0,0,0,0,0,0,0,0,0,0,0,0,0,0,0,0,0,0,0,0,0,0,0,0,0,0,0,0,0,0,0,0,0,0,0,0,0,0,0,0,0,0,0,0,0,0,0,0,0,0,0],"split_type":[0,0,0,0,0,0,0,0,0,0,0,0,0,0,0,0,0,0,0,0,0,0,0,0,0,0,0,0,0,0,0,0,0,0,0,0,0,0,0,0,0,0,0,0,0,0,0,0,0,0,0,0,0,0,0,0,0,0,0,0,0,0,0,0,0,0,0,0,0,0,0,0,0,0,0,0,0,0,0,0,0,0,0,0,0,0,0,0,0,0,0,0,0,0,0,0,0,0,0,0,0,0,0,0,0,0,0,0,0,0,0],"sum_hessian":[3.998E3,1.8E3,2.198E3,5.87E2,1.213E3,1.33E3,8.68E2,1.28E2,4.59E2,6.23E2,5.9E2,6.04E2,7.26E2,5.48E2,3.2E2,9.3E1,3.5E1,2.74E2,1.85E2,3.64E2,2.59E2,3.22E2,2.68E2,2.43E2,3.61E2,1.52E2,5.74E2,3.71E2,1.77E2,2.12E2,1.08E2,8.2E1,1.1E1,2.26E2,4.8E1,1.46E2,3.9E1,2.56E2,1.08E2,1.52E2,1.07E2,1.69E2,1.53E2,2.05E2,6.3E1,1.76E2,6.7E1,1.17E2,2.44E2,4.2E1,1.1E2,2.59E2,3.15E2,1.99E2,1.72E2,7.4E1,1.03E2,6.4E1,1.48E2,1.4E1,9.4E1,1.74E2,5.2E1,3.8E1,1E1,9E1,5.6E1,2.1E1,1.8E1,1.06E2,1.5E2,5E1,5.8E1,7E1,8.2E1,4.7E1,6E1,9.8E1,7.1E1,6.3E1,9E1,1.23E2,8.2E1,2.9E1,3.4E1,8E1,9.6E1,4.6E1,2.1E1,9.7E1,2E1,1.39E2,1.05E2,6E0,3.6E1,8.3E1,2.7E1,1.85E2,7.4E1,8.7E1,2.28E2,2E1,1.79E2,8E1,9.2E1,7.1E1,3E0,8.7E1,1.6E1,7E0,5.7E1],"tree_param":{"num_deleted":"0","num_feature":"11","num_nodes":"111","size_leaf_vector":"1"}},{"base_weights":[-4.9626705E-4,-2.6939074E-2,3.2078482E-2,-4.8087988E-2,-2.6193867E-3,7.668883E-3,5.3659588E-2,-6.602873E-2,-3.171908E-2,-1.7588483E-2,1.1953257E-2,-1.3890977E-3,2.648414E-2,4.2384405E-2,7.1437635E-2,-7.947193E-2,-5.0827757E-2,-4.1502267E-2,-1.2281793E-2,-2.941079E-2,-3.1710388E-3,-2.7143097E-4,2.399305E-2,-1.7281968E-2,1.1531424E-2,1.110433E-2,3.8755402E-2,1.4327869E-2,4.8851542E-2,4.9095683E-2,8.102046E-2,-9.40928E-2,-6.490535E-2,-5.571773E-2,-2.4058647E-2,-5.0568294E-2,-2.532982E-2,-3.274284E-2,-1.9635437E-3,-3.8643036E-2,-5.9625404E-3,-9.9477E-3,1.61953E-2,-9.038742E-3,1.5307424E-2,1.7209183E-2,4.9335513E-2,-3.0300284E-2,-1.3090008E-3,1.884521E-3,2.6375568E-2,7.2169E-4,2.9084869E-2,3.2157812E-2,5.5269152E-2,-8.839561E-4,2.4330918E-2,3.807351E-2,6.453961E-2,2.8908648E-2,5.9761062E-2,7.0520796E-2,9.960295E-2,-5.5738618E-3,-4.133859E-3,-3.920383E-3,-2.6958098E-3,-3.2142194E-3,-1.9374362E-3,-2.1403409E-3,-8.540104E-4,-3.1232794E-3,-1.8364027E-3,-2.2250817E-3,-7.197861E-4,-2.098967E-3,-8.694408E-4,-4.9942307E-4,9.17423E-4,-2.541326E-3,-1.285001E-3,-1.0444426E-3,5.132417E-4,-8.773675E-4,1.2042604E-4,4.1706194E-4,2.3458216E-3,-8.852286E-4,7.8520294E-5,-8.322236E-4,1.1811915E-3,3.9363798E-4,1.5504474E-3,1.1800738E-3,3.011351E-3,-2.0213767E-3,-7.769955E-4,-5.701684E-4,8.0465723E-4,-2.6809925E-4,1.0016201E-3,5.243187E-4,1.6908506E-3,-7.4640085E-4,7.431883E-4,8.9689885E-4,1.8642433E-3,1.0684166E-3,1.9873728E-3,1.6199701E-3,3.3387297E-3,-1.1795335E-3,6.2286796E-4,2.6535007E-4,1.7764161E-3,1.2970511E-3,2.4844422E-3,2.768979E-3,4.2373813E-3,-6.4087287E-4,1.6270056E-3,2.1568665E-3,3.6198606E-3,3.0723128E-3,4.3257624E-3,4.0576556E-3,5.520001E-3],"categories":[],"categories_nodes":[],"categories_segments":[],"categories_sizes":[],"default_left":[0,0,0,0,0,0,0,0,0,0,0,0,0,0,0,0,0,0,0,0,0,0,0,0,0,0,0,0,0,0,0,0,0,0,0,0,0,0,0,0,0,0,0,0,0,0,0,0,0,0,0,0,0,0,0,0,0,0,0,0,0,0,0,0,0,0,0,0,0,0,0,0,0,0,0,0,0,0,0,0,0,0,0,0,0,0,0,0,0,0,0,0,0,0,0,0,0,0,0,0,0,0,0,0,0,0,0,0,0,0,0,0,0,0,0,0,0,0,0,0,0,0,0,0,0,0,0],"id":13,"left_children":[1,3,5,7,9,11,13,15,17,19,21,23,25,27,29,31,33,35,37,39,41,43,45,47,49,51,53,55,57,59,61,63,65,67,69,71,73,75,77,79,81,83,85,87,89,91,93,95,97,99,101,103,105,107,109,111,113,115,117,119,121,123,125,-1,-1,-1,-1,-1,-1,-1,-1,-1,-1,-1,-1,-1,-1,-1,-1,-1,-1,-1,-1,-1,-1,-1,-1,-1,-1,-1,-1,-1,-1,-1,-1,-1,-1,-1,-1,-1,-1,-1,-1,-1,-1,-1,-1,-1,-1,-1,-1,-1,-1,-1,-1,-1,-1,-1,-1,-1,-1,-1,-1,-1,-1,-1,-1],"loss_changes":[3.448919E0,1.1365544E0,9.44643E-1,3.4502387E-1,2.2467561E-1,1.4370778E-1,1.8780112E-1,1.1100936E-1,1.17388666E-1,8.649403E-2,7.683588E-2,1.17245466E-1,5.128157E-2,1.0544562E-1,7.481086E-2,5.7146907E-2,3.3609867E-2,5.9126496E-2,4.406024E-2,6.0167536E-2,3.0346105E-2,3.565037E-2,4.4365913E-2,5.319328E-2,4.5058295E-2,2.294132E-2,1.47832185E-2,1.6911784E-2,7.7858925E-2,2.2601575E-2,4.2924166E-2,1.9757628E-2,1.8326163E-2,3.0216813E-2,4.8946645E-3,4.101175E-2,3.0803353E-2,9.197257E-3,2.3003573E-2,3.0231953E-2,1.9591607E-2,1.609967E-2,1.4085796E-2,1.5381296E-2,2.5371352E-2,2.668352E-2,1.3994083E-2,2.0448714E-2,2.0560501E-2,2.5357086E-2,1.430697E-2,1.7706115E-2,3.4443885E-3,8.24026E-3,8.887857E-3,1.3926062E-2,1.40836835E-2,3.8733095E-2,3.0847073E-2,6.629683E-3,1.2211353E-2,1.8922687E-2,8.9690685E-3,0E0,0E0,0E0,0E0,0E0,0E0,0E0,0E0,0E0,0E0,0E0,0E0,0E0,0E0,0E0,0E0,0E0,0E0,0E0,0E0,0E0,0E0,0E0,0E0,0E0,0E0,0E0,0E0,0E0,0E0,0E0,0E0,0E0,0E0,0E0,0E0,0E0,0E0,0E0,0E0,0E0,0E0,0E0,0E0,0E0,0E0,0E0,0E0,0E0,0E0,0E0,0E0,0E0,0E0,0E0,0E0,0E0,0E0,0E0,0E0,0E0,0E0,0E0,0E0],"parents":[2147483647,0,0,1,1,2,2,3,3,4,4,5,5,6,6,7,7,8,8,9,9,10,10,11,11,12,12,13,13,14,14,15,15,16,16,17,17,18,18,19,19,20,20,21,21,22,22,23,23,24,24,25,25,26,26,27,27,28,28,29,29,30,30,31,31,32,32,33,33,34,34,35,35,36,36,37,37,38,38,39,39,40,40,41,41,42,42,43,43,44,44,45,45,46,46,47,47,48,48,49,49,50,50,51,51,52,52,53,53,54,54,55,55,56,56,57,57,58,58,59,59,60,60,61,61,62,62],"right_children":[2,4,6,8,10,12,14,16,18,20,22,24,26,28,30,32,34,36,38,40,42,44,46,48,50,52,54,56,58,60,62,64,66,68,70,72,74,76,78,80,82,84,86,88,90,92,94,96,98,100,102,104,106,108,110,112,114,116,118,120,122,124,126,-1,-1,-1,-1,-1,-1,-1,-1,-1,-1,-1,-1,-1,-1,-1,-1,-1,-1,-1,-1,-1,-1,-1,-1,-1,-1,-1,-1,-1,-1,-1,-1,-1,-1,-1,-1,-1,-1,-1,-1,-1,-1,-1,-1,-1,-1,-1,-1,-1,-1,-1,-1,-1,-1,-1,-1,-1,-1,-1,-1,-1,-1,-1,-1],"split_conditions":[5.5943E1,1.3073E1,1.2009E1,5.0347E1,5.0646E1,6.2071E1,6.1529E1,9.302E0,1.03107E2,8.2636E1,4.25E-1,7.0146E1,6.0948E1,3.4542E1,4.7515E1,4.25E-1,1.2767E2,5.25E-1,7.859E0,6.75E-1,1.8238E1,1.7542E1,1.21814E2,4.5E-1,5E-1,5.75E-1,6.25E-1,1.4867E1,1.6839E1,1.512E1,5.75E-1,5.0176E1,7.3934E1,5.25E-1,2E-1,5.3313E1,7.556E0,5E-1,5.75E-1,4.8096E1,4.7986E1,6.6993E1,6.75E-1,2.75E-1,4.076E1,5.3764E1,1.4791E1,8.823E0,9.381E0,1.0163E1,9.1597E1,8.097E0,7.781E0,8.054E0,6.828E0,5.0902E1,3.25E-1,4.5E-1,6.25E-1,1.2391E1,4.25E-1,1.7794E1,5.4898E1,-5.5738618E-3,-4.133859E-3,-3.920383E-3,-2.6958098E-3,-3.2142194E-3,-1.9374362E-3,-2.1403409E-3,-8.540104E-4,-3.1232794E-3,-1.8364027E-3,-2.2250817E-3,-7.197861E-4,-2.098967E-3,-8.694408E-4,-4.9942307E-4,9.17423E-4,-2.541326E-3,-1.285001E-3,-1.0444426E-3,5.132417E-4,-8.773675E-4,1.2042604E-4,4.1706194E-4,2.3458216E-3,-8.852286E-4,7.8520294E-5,-8.322236E-4,1.1811915E-3,3.9363798E-4,1.5504474E-3,1.1800738E-3,3.011351E-3,-2.0213767E-3,-7.769955E-4,-5.701684E-4,8.0465723E-4,-2.6809925E-4,1.0016201E-3,5.243187E-4,1.6908506E-3,-7.4640085E-4,7.431883E-4,8.9689885E-4,1.8642433E-3,1.0684166E-3,1.9873728E-3,1.6199701E-3,3.3387297E-3,-1.1795335E-3,6.2286796E-4,2.6535007E-4,1.7764161E-3,1.2970511E-3,2.4844422E-3,2.768979E-3,4.2373813E-3,-6.4087287E-4,1.6270056E-3,2.1568665E-3,3.6198606E-3,3.0723128E-3,4.3257624E-3,4.0576556E-3,5.520001E-3],"split_indices":[0,5,5,0,0,0,0,5,3,3,8,3,3,3,3,8,3,8,5,8,5,5,3,8,8,8,8,5,5,5,8,3,3,8,8,0,5,8,8,0,0,2,8,8,3,0,5,5,5,5,3,5,5,5,5,2,8,8,8,5,8,5,2,0,0,0,0,0,0,0,0,0,0,0,0,0,0,0,0,0,0,0,0,0,0,0,0,0,0,0,0,0,0,0,0,0,0,0,0,0,0,0,0,0,0,0,0,0,0,0,0,0,0,0,0,0,0,0,0,0,0,0,0,0,0,0,0],"split_type":[0,0,0,0,0,0,0,0,0,0,0,0,0,0,0,0,0,0,0,0,0,0,0,0,0,0,0,0,0,0,0,0,0,0,0,0,0,0,0,0,0,0,0,0,0,0,0,0,0,0,0,0,0,0,0,0,0,0,0,0,0,0,0,0,0,0,0,0,0,0,0,0,0,0,0,0,0,0,0,0,0,0,0,0,0,0,0,0,0,0,0,0,0,0,0,0,0,0,0,0,0,0,0,0,0,0,0,0,0,0,0,0,0,0,0,0,0,0,0,0,0,0,0,0,0,0,0],"sum_hessian":[4.002E3,2.209E3,1.793E3,1.181E3,1.028E3,8.42E2,9.51E2,5.62E2,6.19E2,5.07E2,5.21E2,5.69E2,2.73E2,5.84E2,3.67E2,2.96E2,2.66E2,4.11E2,2.08E2,2.78E2,2.29E2,2.59E2,2.62E2,2.55E2,3.14E2,1.22E2,1.51E2,1.1E2,4.74E2,1.12E2,2.55E2,1.45E2,1.51E2,2.24E2,4.2E1,2.62E2,1.49E2,6.9E1,1.39E2,1.99E2,7.9E1,1.7E2,5.9E1,1.66E2,9.3E1,2.08E2,5.4E1,1.4E2,1.15E2,1.91E2,1.23E2,7.8E1,4.4E1,1.1E2,4.1E1,4.4E1,6.6E1,2.83E2,1.91E2,4E1,7.2E1,1.66E2,8.9E1,5.4E1,9.1E1,6.5E1,8.6E1,1.47E2,7.7E1,1E1,3.2E1,1.39E2,1.23E2,5.3E1,9.6E1,4.2E1,2.7E1,1E2,3.9E1,1.01E2,9.8E1,4.1E1,3.8E1,1.05E2,6.5E1,4.8E1,1.1E1,9.1E1,7.5E1,1.9E1,7.4E1,1.25E2,8.3E1,1.7E1,3.7E1,8.2E1,5.8E1,7.3E1,4.2E1,1.37E2,5.4E1,4E1,8.3E1,3.7E1,4.1E1,2E1,2.4E1,4.7E1,6.3E1,1.5E1,2.6E1,1.6E1,2.8E1,2.5E1,4.1E1,1.4E2,1.43E2,1.34E2,5.7E1,3E0,3.7E1,3.3E1,3.9E1,1.09E2,5.7E1,3.6E1,5.3E1],"tree_param":{"num_deleted":"0","num_feature":"11","num_nodes":"127","size_leaf_vector":"1"}},{"base_weights":[1.3993785E-4,-2.9630462E-2,2.8398717E-2,-5.398054E-2,1.6626979E-3,4.2439396E-3,5.755006E-2,-7.2681226E-2,-3.0656405E-2,-1.7583398E-2,2.3531307E-2,-2.1607123E-2,1.9523509E-2,3.7217427E-2,8.1232384E-2,-8.33825E-2,-5.1028542E-2,-4.281893E-2,-1.4333345E-2,-3.5910845E-2,-7.23778E-3,1.0696123E-2,3.5999473E-2,-4.0594943E-2,-1.1589648E-2,1.8494222E-3,3.2167736E-2,1.1406589E-2,4.6578765E-2,6.2712625E-2,9.433742E-2,-1.0149285E-1,-7.279356E-2,-6.588241E-2,-3.9958034E-2,-4.927685E-2,-1.7574983E-2,-3.319332E-2,-1.4817226E-4,-5.1134057E-2,-2.5504416E-2,-1.8429982E-2,7.023381E-3,1.3220519E-3,2.8873406E-2,2.3888767E-2,4.7875974E-2,-5.005685E-2,-2.5108896E-2,-1.737172E-2,1.7824046E-2,-1.6375994E-2,1.3720968E-2,1.8357852E-2,4.543247E-2,-1.3393191E-2,2.3017166E-2,3.3892773E-2,5.6465767E-2,5.3486824E-2,8.5361525E-2,7.575614E-2,1.0425393E-1,-5.7019233E-3,-4.405351E-3,-4.1326988E-3,-2.9778192E-3,-3.792287E-3,-2.8207323E-3,-2.5373648E-3,-1.3774865E-3,-2.8103478E-3,-1.6775655E-3,-1.2547727E-3,-3.5322807E-4,-2.2128928E-3,-1.0184263E-3,-5.156972E-4,7.60362E-4,-3.045887E-3,-1.8681524E-3,-1.7899511E-3,-7.029515E-4,-1.2759332E-3,-2.088337E-4,-5.871956E-4,9.2607114E-4,-4.022791E-4,6.089636E-4,4.1824914E-4,1.804457E-3,8.591433E-4,1.8213218E-3,1.5494858E-3,2.913525E-3,-2.8294362E-3,-1.862882E-3,-2.1008176E-3,-7.4170757E-4,-1.4858359E-3,-3.4656175E-4,3.3157863E-4,1.6690055E-3,-1.404504E-3,-3.825097E-4,1.3788146E-4,1.7892203E-3,2.1718084E-4,1.5330408E-3,1.4857955E-3,2.8551617E-3,-1.1904945E-3,4.1665425E-4,5.0841965E-4,1.8547465E-3,1.0604906E-3,2.106692E-3,2.0973254E-3,3.3020165E-3,1.7673689E-3,3.171571E-3,2.0409515E-3,4.4141947E-3,3.0367984E-3,4.3695536E-3,4.7997977E-3,5.8108955E-3],"categories":[],"categories_nodes":[],"categories_segments":[],"categories_sizes":[],"default_left":[0,0,0,0,0,0,0,0,0,0,0,0,0,0,0,0,0,0,0,0,0,0,0,0,0,0,0,0,0,0,0,0,0,0,0,0,0,0,0,0,0,0,0,0,0,0,0,0,0,0,0,0,0,0,0,0,0,0,0,0,0,0,0,0,0,0,0,0,0,0,0,0,0,0,0,0,0,0,0,0,0,0,0,0,0,0,0,0,0,0,0,0,0,0,0,0,0,0,0,0,0,0,0,0,0,0,0,0,0,0,0,0,0,0,0,0,0,0,0,0,0,0,0,0,0,0,0],"id":14,"left_children":[1,3,5,7,9,11,13,15,17,19,21,23,25,27,29,31,33,35,37,39,41,43,45,47,49,51,53,55,57,59,61,63,65,67,69,71,73,75,77,79,81,83,85,87,89,91,93,95,97,99,101,103,105,107,109,111,113,115,117,119,121,123,125,-1,-1,-1,-1,-1,-1,-1,-1,-1,-1,-1,-1,-1,-1,-1,-1,-1,-1,-1,-1,-1,-1,-1,-1,-1,-1,-1,-1,-1,-1,-1,-1,-1,-1,-1,-1,-1,-1,-1,-1,-1,-1,-1,-1,-1,-1,-1,-1,-1,-1,-1,-1,-1,-1,-1,-1,-1,-1,-1,-1,-1,-1,-1,-1],"loss_changes":[3.3911803E0,1.4958781E0,1.455926E0,4.7931147E-1,3.6237517E-1,4.4755405E-1,4.4816446E-1,1.3755274E-1,9.72614E-2,8.658089E-2,6.410754E-2,7.960792E-2,1.5905485E-1,1.2173045E-1,9.893131E-2,7.085395E-2,3.1077623E-2,4.510653E-2,5.6711875E-2,2.483502E-2,4.70559E-2,3.404086E-2,2.8198183E-2,1.998961E-2,4.7419593E-2,6.4701125E-2,7.5187504E-2,3.946808E-2,4.461944E-2,3.3463955E-2,3.8351774E-2,1.4806509E-2,2.9144168E-2,3.833592E-3,1.4667109E-2,2.2525668E-2,4.4862647E-3,1.2011461E-2,1.9201E-2,6.61619E-3,1.127927E-2,1.6564544E-2,2.8269835E-2,1.3624949E-2,9.76098E-3,8.033954E-3,1.609771E-2,5.332291E-3,9.278752E-3,2.9695988E-2,7.7877343E-3,1.18464455E-2,4.368322E-2,3.5212226E-2,3.7005663E-2,1.0156317E-2,1.6444825E-2,1.635234E-2,2.6006043E-2,2.1569282E-2,3.034979E-3,1.0595322E-2,4.750252E-3,0E0,0E0,0E0,0E0,0E0,0E0,0E0,0E0,0E0,0E0,0E0,0E0,0E0,0E0,0E0,0E0,0E0,0E0,0E0,0E0,0E0,0E0,0E0,0E0,0E0,0E0,0E0,0E0,0E0,0E0,0E0,0E0,0E0,0E0,0E0,0E0,0E0,0E0,0E0,0E0,0E0,0E0,0E0,0E0,0E0,0E0,0E0,0E0,0E0,0E0,0E0,0E0,0E0,0E0,0E0,0E0,0E0,0E0,0E0,0E0,0E0,0E0,0E0,0E0],"parents":[2147483647,0,0,1,1,2,2,3,3,4,4,5,5,6,6,7,7,8,8,9,9,10,10,11,11,12,12,13,13,14,14,15,15,16,16,17,17,18,18,19,19,20,20,21,21,22,22,23,23,24,24,25,25,26,26,27,27,28,28,29,29,30,30,31,31,32,32,33,33,34,34,35,35,36,36,37,37,38,38,39,39,40,40,41,41,42,42,43,43,44,44,45,45,46,46,47,47,48,48,49,49,50,50,51,51,52,52,53,53,54,54,55,55,56,56,57,57,58,58,59,59,60,60,61,61,62,62],"right_children":[2,4,6,8,10,12,14,16,18,20,22,24,26,28,30,32,34,36,38,40,42,44,46,48,50,52,54,56,58,60,62,64,66,68,70,72,74,76,78,80,82,84,86,88,90,92,94,96,98,100,102,104,106,108,110,112,114,116,118,120,122,124,126,-1,-1,-1,-1,-1,-1,-1,-1,-1,-1,-1,-1,-1,-1,-1,-1,-1,-1,-1,-1,-1,-1,-1,-1,-1,-1,-1,-1,-1,-1,-1,-1,-1,-1,-1,-1,-1,-1,-1,-1,-1,-1,-1,-1,-1,-1,-1,-1,-1,-1,-1,-1,-1,-1,-1,-1,-1,-1,-1,-1,-1,-1,-1,-1],"split_conditions":[5.4868E1,6.6013E1,6.6228E1,1.3021E1,1.3197E1,1.0601E1,1.3073E1,5.1741E1,6.1098E1,4.8498E1,7.0392E1,5.916E1,6.0063E1,5.7823E1,5.898E1,7.96E0,6.0351E1,5.3065E1,4.9101E1,3.25E-1,7.1034E1,5.1146E1,1.6344E1,6.1272E1,6.329E1,5.8925E1,5.9605E1,7.556E0,4.25E-1,6.25E-1,6.8964E1,6.0211E1,4.5E-1,5.7298E1,4.25E-1,6.25E-1,4.5E-1,5E-1,1.7455E1,7.1505E1,9.027E0,5.2467E1,8.313E0,1.6601E1,2.75E-1,5.25E-1,4.9462E1,8.705E0,3.5E-1,3.5E-1,5.25E-1,1.4168E1,1.7011E1,1.5396E1,1.4636E1,5E-1,7.0703E1,6.0577E1,7.0242E1,6.9383E1,6.6977E1,3.5E-1,6.3206E1,-5.7019233E-3,-4.405351E-3,-4.1326988E-3,-2.9778192E-3,-3.792287E-3,-2.8207323E-3,-2.5373648E-3,-1.3774865E-3,-2.8103478E-3,-1.6775655E-3,-1.2547727E-3,-3.5322807E-4,-2.2128928E-3,-1.0184263E-3,-5.156972E-4,7.60362E-4,-3.045887E-3,-1.8681524E-3,-1.7899511E-3,-7.029515E-4,-1.2759332E-3,-2.088337E-4,-5.871956E-4,9.2607114E-4,-4.022791E-4,6.089636E-4,4.1824914E-4,1.804457E-3,8.591433E-4,1.8213218E-3,1.5494858E-3,2.913525E-3,-2.8294362E-3,-1.862882E-3,-2.1008176E-3,-7.4170757E-4,-1.4858359E-3,-3.4656175E-4,3.3157863E-4,1.6690055E-3,-1.404504E-3,-3.825097E-4,1.3788146E-4,1.7892203E-3,2.1718084E-4,1.5330408E-3,1.4857955E-3,2.8551617E-3,-1.1904945E-3,4.1665425E-4,5.0841965E-4,1.8547465E-3,1.0604906E-3,2.106692E-3,2.0973254E-3,3.3020165E-3,1.7673689E-3,3.171571E-3,2.0409515E-3,4.4141947E-3,3.0367984E-3,4.3695536E-3,4.7997977E-3,5.8108955E-3],"split_indices":[0,1,1,5,5,5,5,0,1,0,1,1,1,0,0,5,1,0,0,8,1,0,5,0,0,0,0,5,8,8,1,1,8,1,8,8,8,8,5,1,5,0,5,5,8,8,0,5,8,8,8,5,5,5,5,8,1,0,1,1,1,8,0,0,0,0,0,0,0,0,0,0,0,0,0,0,0,0,0,0,0,0,0,0,0,0,0,0,0,0,0,0,0,0,0,0,0,0,0,0,0,0,0,0,0,0,0,0,0,0,0,0,0,0,0,0,0,0,0,0,0,0,0,0,0,0,0],"split_type":[0,0,0,0,0,0,0,0,0,0,0,0,0,0,0,0,0,0,0,0,0,0,0,0,0,0,0,0,0,0,0,0,0,0,0,0,0,0,0,0,0,0,0,0,0,0,0,0,0,0,0,0,0,0,0,0,0,0,0,0,0,0,0,0,0,0,0,0,0,0,0,0,0,0,0,0,0,0,0,0,0,0,0,0,0,0,0,0,0,0,0,0,0,0,0,0,0,0,0,0,0,0,0,0,0,0,0,0,0,0,0,0,0,0,0,0,0,0,0,0,0,0,0,0,0,0,0],"sum_hessian":[4.029E3,1.962E3,2.067E3,1.103E3,8.59E2,1.131E3,9.36E2,6.11E2,4.92E2,4.57E2,4.02E2,4.2E2,7.11E2,5.05E2,4.31E2,4.07E2,2.04E2,2.81E2,2.11E2,1.64E2,2.93E2,1.99E2,2.03E2,1.44E2,2.76E2,2.97E2,4.14E2,1.35E2,3.7E2,1.81E2,2.5E2,1.47E2,2.6E2,8.5E1,1.19E2,2.23E2,5.8E1,9E1,1.21E2,6.5E1,9.9E1,1.64E2,1.29E2,1.32E2,6.7E1,1.02E2,1.01E2,8.8E1,5.6E1,2.31E2,4.5E1,1.17E2,1.8E2,2.04E2,2.1E2,4.3E1,9.2E1,1.64E2,2.06E2,1.31E2,5E1,9E1,1.6E2,7.2E1,7.5E1,1.46E2,1.14E2,3.8E1,4.7E1,6.2E1,5.7E1,1.53E2,7E1,3.3E1,2.5E1,4.7E1,4.3E1,7.3E1,4.8E1,3.6E1,2.9E1,5.1E1,4.8E1,1.09E2,5.5E1,4.9E1,8E1,7.1E1,6.1E1,1.8E1,4.9E1,6.8E1,3.4E1,4E1,6.1E1,5.6E1,3.2E1,2E1,3.6E1,1.05E2,1.26E2,2.7E1,1.8E1,4.9E1,6.8E1,1.21E2,5.9E1,9.6E1,1.08E2,9.1E1,1.19E2,2.9E1,1.4E1,4.9E1,4.3E1,6.6E1,9.8E1,8.4E1,1.22E2,4.8E1,8.3E1,4E0,4.6E1,4.2E1,4.8E1,1E2,6E1],"tree_param":{"num_deleted":"0","num_feature":"11","num_nodes":"127","size_leaf_vector":"1"}},{"base_weights":[-6.1357445E-5,-4.1400004E-2,3.849741E-2,-7.084982E-2,-2.2589976E-2,1.9440234E-2,6.921487E-2,-9.464686E-2,-5.8642402E-2,-3.2601222E-2,-1.1596157E-2,8.669271E-3,3.0627498E-2,5.8857035E-2,9.616986E-2,-6.2190513E-3,-8.7438405E-2,-6.8012945E-2,-5.0699394E-2,-4.1509416E-2,-2.5342878E-2,-1.6640676E-2,1.7896775E-3,7.127329E-4,1.6104277E-2,2.4590215E-2,4.0500168E-2,4.955865E-2,6.824315E-2,9.144335E-2,6.919504E-3,-9.660624E-2,-8.102539E-2,-7.686324E-2,-6.2027313E-2,-4.440916E-2,-6.306599E-2,-3.4976687E-2,-4.895704E-2,-1.983888E-2,-3.4739107E-2,-9.180898E-3,-2.2070171E-2,1.0258292E-2,-4.4405246E-3,-5.199127E-3,1.0543283E-2,2.1681003E-2,8.387032E-3,1.8282462E-2,2.9721944E-2,4.4837967E-2,2.8647691E-2,3.653566E-2,5.3891316E-2,6.066793E-2,7.817314E-2,3.8447033E-3,9.808515E-2,-5.1288176E-3,-3.968447E-3,-4.075421E-3,-1.6864872E-3,-3.3669807E-3,-4.231998E-3,-2.3587781E-3,-3.2422866E-3,-2.7815923E-3,-1.9149951E-3,-9.989928E-4,-3.190909E-3,-2.299371E-3,-1.5548108E-3,-2.761422E-3,-2.2052214E-3,-1.2293997E-3,-5.6696555E-4,-2.0767974E-3,-1.4664269E-3,-6.6509907E-4,-2.8469783E-4,-1.2210977E-3,-6.8457716E-4,1.0182258E-4,